{"learner":{"attributes":{"scikit_learn":"{\"_estimator_type\": \"regressor\"}"},"feature_names":["hour","minute","weekday","is_weekend","week","minute_of_day","traffic_level_mean_tomtom","vessel_count_vessel","vessel_avg_speed_vessel","traffic_level_mean_tomtom_isna","vessel_count_vessel_isna","vessel_avg_speed_vessel_isna","GVCV-09__sensor_lag1","GVCV-09__sensor_lag2","GVCV-09__sensor_lag3","GVCV-09__sensor_lag4","GVCV-09__sensor_lag5","GVCV-09__sensor_lag6"],"feature_types":["int","int","int","int","int","int","float","float","float","int","int","int","float","float","float","float","float","float"],"gradient_booster":{"model":{"gbtree_model_param":{"num_parallel_tree":"1","num_trees":"500"},"iteration_indptr":[0,1,2,3,4,5,6,7,8,9,10,11,12,13,14,15,16,17,18,19,20,21,22,23,24,25,26,27,28,29,30,31,32,33,34,35,36,37,38,39,40,41,42,43,44,45,46,47,48,49,50,51,52,53,54,55,56,57,58,59,60,61,62,63,64,65,66,67,68,69,70,71,72,73,74,75,76,77,78,79,80,81,82,83,84,85,86,87,88,89,90,91,92,93,94,95,96,97,98,99,100,101,102,103,104,105,106,107,108,109,110,111,112,113,114,115,116,117,118,119,120,121,122,123,124,125,126,127,128,129,130,131,132,133,134,135,136,137,138,139,140,141,142,143,144,145,146,147,148,149,150,151,152,153,154,155,156,157,158,159,160,161,162,163,164,165,166,167,168,169,170,171,172,173,174,175,176,177,178,179,180,181,182,183,184,185,186,187,188,189,190,191,192,193,194,195,196,197,198,199,200,201,202,203,204,205,206,207,208,209,210,211,212,213,214,215,216,217,218,219,220,221,222,223,224,225,226,227,228,229,230,231,232,233,234,235,236,237,238,239,240,241,242,243,244,245,246,247,248,249,250,251,252,253,254,255,256,257,258,259,260,261,262,263,264,265,266,267,268,269,270,271,272,273,274,275,276,277,278,279,280,281,282,283,284,285,286,287,288,289,290,291,292,293,294,295,296,297,298,299,300,301,302,303,304,305,306,307,308,309,310,311,312,313,314,315,316,317,318,319,320,321,322,323,324,325,326,327,328,329,330,331,332,333,334,335,336,337,338,339,340,341,342,343,344,345,346,347,348,349,350,351,352,353,354,355,356,357,358,359,360,361,362,363,364,365,366,367,368,369,370,371,372,373,374,375,376,377,378,379,380,381,382,383,384,385,386,387,388,389,390,391,392,393,394,395,396,397,398,399,400,401,402,403,404,405,406,407,408,409,410,411,412,413,414,415,416,417,418,419,420,421,422,423,424,425,426,427,428,429,430,431,432,433,434,435,436,437,438,439,440,441,442,443,444,445,446,447,448,449,450,451,452,453,454,455,456,457,458,459,460,461,462,463,464,465,466,467,468,469,470,471,472,473,474,475,476,477,478,479,480,481,482,483,484,485,486,487,488,489,490,491,492,493,494,495,496,497,498,499,500],"tree_info":[0,0,0,0,0,0,0,0,0,0,0,0,0,0,0,0,0,0,0,0,0,0,0,0,0,0,0,0,0,0,0,0,0,0,0,0,0,0,0,0,0,0,0,0,0,0,0,0,0,0,0,0,0,0,0,0,0,0,0,0,0,0,0,0,0,0,0,0,0,0,0,0,0,0,0,0,0,0,0,0,0,0,0,0,0,0,0,0,0,0,0,0,0,0,0,0,0,0,0,0,0,0,0,0,0,0,0,0,0,0,0,0,0,0,0,0,0,0,0,0,0,0,0,0,0,0,0,0,0,0,0,0,0,0,0,0,0,0,0,0,0,0,0,0,0,0,0,0,0,0,0,0,0,0,0,0,0,0,0,0,0,0,0,0,0,0,0,0,0,0,0,0,0,0,0,0,0,0,0,0,0,0,0,0,0,0,0,0,0,0,0,0,0,0,0,0,0,0,0,0,0,0,0,0,0,0,0,0,0,0,0,0,0,0,0,0,0,0,0,0,0,0,0,0,0,0,0,0,0,0,0,0,0,0,0,0,0,0,0,0,0,0,0,0,0,0,0,0,0,0,0,0,0,0,0,0,0,0,0,0,0,0,0,0,0,0,0,0,0,0,0,0,0,0,0,0,0,0,0,0,0,0,0,0,0,0,0,0,0,0,0,0,0,0,0,0,0,0,0,0,0,0,0,0,0,0,0,0,0,0,0,0,0,0,0,0,0,0,0,0,0,0,0,0,0,0,0,0,0,0,0,0,0,0,0,0,0,0,0,0,0,0,0,0,0,0,0,0,0,0,0,0,0,0,0,0,0,0,0,0,0,0,0,0,0,0,0,0,0,0,0,0,0,0,0,0,0,0,0,0,0,0,0,0,0,0,0,0,0,0,0,0,0,0,0,0,0,0,0,0,0,0,0,0,0,0,0,0,0,0,0,0,0,0,0,0,0,0,0,0,0,0,0,0,0,0,0,0,0,0,0,0,0,0,0,0,0,0,0,0,0,0,0,0,0,0,0,0,0,0,0,0,0,0,0,0,0,0,0,0,0,0,0,0,0,0,0,0,0,0,0,0,0,0,0,0,0,0,0,0,0,0,0,0,0,0,0,0,0,0,0,0,0,0,0,0,0,0,0,0],"trees":[{"base_weights":[-4.6905022E-4,-2.9225007E-4,4.988209E-3,2.8148461E-2,-0E0,-0E0,4.8981298E-2,6.674539E-2,-0E0,7.566098E-2,-0E0,-0E0,8.297702E-4],"categories":[],"categories_nodes":[],"categories_segments":[],"categories_sizes":[],"default_left":[0,0,0,0,0,0,0,0,0,0,0,0,0],"id":0,"left_children":[1,-1,3,5,-1,-1,7,9,-1,11,-1,-1,-1],"loss_changes":[3.6367348E-1,0E0,2.3328736E-1,2.805879E-1,0E0,0E0,1.8737656E-1,1.4589757E-1,0E0,2.5778413E-3,0E0,0E0,0E0],"parents":[2147483647,0,0,2,2,3,3,6,6,7,7,9,9],"right_children":[2,-1,4,6,-1,-1,8,10,-1,12,-1,-1,-1],"split_conditions":[9.66E2,-2.9225007E-4,1.284E3,2.61746E0,-0E0,-0E0,4.2E1,1E0,-0E0,6E0,-0E0,-0E0,8.297702E-4],"split_indices":[5,0,5,8,0,0,1,17,0,1,0,0,0],"split_type":[0,0,0,0,0,0,0,0,0,0,0,0,0],"sum_hessian":[8.96E2,4.32E2,4.64E2,3.09E2,1.55E2,9E1,2.19E2,1.6E2,5.9E1,1.5E2,1E1,1.9E1,1.31E2],"tree_param":{"num_deleted":"0","num_feature":"18","num_nodes":"13","size_leaf_vector":"1"}},{"base_weights":[-0E0,-4.0642422E-4,1.6632654E-2,5.564192E-2,-0E0,-0E0,5.632163E-1,-3.905361E-5,-0E0,1.0496692E-2,-0E0],"categories":[],"categories_nodes":[],"categories_segments":[],"categories_sizes":[],"default_left":[0,0,0,0,0,0,0,0,0,0,0],"id":1,"left_children":[1,-1,3,5,7,-1,9,-1,-1,-1,-1],"loss_changes":[8.0493605E-1,0E0,7.897228E-1,7.3314953E0,2.2137016E-3,0E0,7.534792E0,0E0,0E0,0E0,0E0],"parents":[2147483647,0,0,2,2,3,3,4,4,6,6],"right_children":[2,-1,4,6,8,-1,10,-1,-1,-1,-1],"split_conditions":[9.63E2,-4.0642422E-4,1.284E3,8.81903E-1,5.7E1,-0E0,8.86618E-1,-3.905361E-5,-0E0,1.0496692E-2,-0E0],"split_indices":[5,0,5,6,1,0,6,0,0,0,0],"split_type":[0,0,0,0,0,0,0,0,0,0,0],"sum_hessian":[8.88E2,4.3E2,4.58E2,2.96E2,1.62E2,2.7E2,2.6E1,1.52E2,1E1,1.5E1,1.1E1],"tree_param":{"num_deleted":"0","num_feature":"18","num_nodes":"11","size_leaf_vector":"1"}},{"base_weights":[-0E0,-7.1027325E-3,1.9395289E-3,-2.6833799E-2,-0E0,-0E0,-3.2119878E-2,7.473551E-2,-6.640883E-5,-0E0,-3.587521E-2,1.2389683E-1,-0E0,-3.8234534E-4,-0E0,1.6563615E-1,-0E0,-0E0,2.0884915E-1,2.4867697E-1,-0E0,-0E0,3.8650627E-3],"categories":[],"categories_nodes":[],"categories_segments":[],"categories_sizes":[],"default_left":[0,0,0,0,0,0,0,0,0,0,0,0,0,0,0,0,0,0,0,0,0,0,0],"id":2,"left_children":[1,3,-1,5,7,-1,9,11,-1,-1,13,15,-1,-1,-1,17,-1,-1,19,21,-1,-1,-1],"loss_changes":[6.5423006E-1,3.6617357E-1,0E0,8.756319E-2,7.662745E-1,0E0,3.0410022E-2,7.90791E-1,0E0,0E0,2.6498497E-2,7.267548E-1,0E0,0E0,0E0,7.76145E-1,0E0,0E0,5.33499E-1,6.927767E-1,0E0,0E0,0E0],"parents":[2147483647,0,0,1,1,3,3,4,4,6,6,7,7,10,10,11,11,15,15,18,18,19,19],"right_children":[2,4,-1,6,8,-1,10,12,-1,-1,14,16,-1,-1,-1,18,-1,-1,20,22,-1,-1,-1],"split_conditions":[2E0,1.119E3,1.9395289E-3,9E0,1.263E3,-0E0,2.36411E0,1.1442E4,-6.640883E-5,-0E0,1.4324E4,2.837853E0,-0E0,-3.8234534E-4,-0E0,5.385E3,-0E0,-0E0,4.8E1,2.4E1,-0E0,-0E0,3.8650627E-3],"split_indices":[12,5,0,1,5,0,8,7,0,0,7,8,0,0,0,7,0,0,1,1,0,0,0],"split_type":[0,0,0,0,0,0,0,0,0,0,0,0,0,0,0,0,0,0,0,0,0,0,0],"sum_hessian":[8.8E2,8.63E2,1.7E1,5.69E2,2.94E2,8.7E1,4.82E2,1.36E2,1.58E2,7.2E1,4.1E2,1.01E2,3.5E1,3.97E2,1.3E1,8.3E1,1.8E1,1.3E1,7E1,5.8E1,1.2E1,2.8E1,3E1],"tree_param":{"num_deleted":"0","num_feature":"18","num_nodes":"23","size_leaf_vector":"1"}},{"base_weights":[-0E0,-1.813137E-2,5.676363E-1,-2.2037406E-2,-0E0,-0E0,9.914851E-3,-3.320565E-4,-0E0,-0E0,-5.337367E-5,-0E0,2.0889215E-2,4.018981E-2,-0E0,8.5742533E-4,-0E0],"categories":[],"categories_nodes":[],"categories_segments":[],"categories_sizes":[],"default_left":[0,0,0,0,0,0,0,0,0,0,0,0,0,0,0,0,0],"id":3,"left_children":[1,3,5,7,-1,-1,-1,-1,9,11,-1,-1,13,15,-1,-1,-1],"loss_changes":[7.0610585E0,1.1274439E-1,2.6212296E0,7.945287E-2,0E0,0E0,0E0,0E0,4.1891695E-3,5.585454E-2,0E0,0E0,1.13745645E-1,1.2525198E-1,0E0,0E0,0E0],"parents":[2147483647,0,0,1,1,2,2,3,3,8,8,9,9,12,12,13,13],"right_children":[2,4,6,8,-1,-1,-1,-1,10,12,-1,-1,14,16,-1,-1,-1],"split_conditions":[1E0,6E0,2.761939E0,1.05E3,-0E0,-0E0,9.914851E-3,-3.320565E-4,2.854028E0,2.61746E0,-5.337367E-5,-0E0,8.89838E-1,4E0,-0E0,8.5742533E-4,-0E0],"split_indices":[12,2,8,5,0,0,0,0,8,8,0,0,6,2,0,0,0],"split_type":[0,0,0,0,0,0,0,0,0,0,0,0,0,0,0,0,0],"sum_hessian":[9.16E2,8.95E2,2.1E1,8.38E2,5.7E1,1.1E1,1E1,4.62E2,3.76E2,2.22E2,1.54E2,9.4E1,1.28E2,1.05E2,2.3E1,4.2E1,6.3E1],"tree_param":{"num_deleted":"0","num_feature":"18","num_nodes":"17","size_leaf_vector":"1"}},{"base_weights":[-0E0,-1.7236408E-2,1.3740401E-2,-0E0,-2.9742345E-4,4.6593063E-2,-0E0,7.58554E-2,-0E0,-0E0,9.514644E-2,1.0489445E-1,-0E0,1.2550654E-1,-0E0,-0E0,2.3698406E-1,2.150971E-2,-0E0,4.016217E-3,-0E0,-0E0,7.141817E-4],"categories":[],"categories_nodes":[],"categories_segments":[],"categories_sizes":[],"default_left":[0,0,0,0,0,0,0,0,0,0,0,0,0,0,0,0,0,0,0,0,0,0,0],"id":4,"left_children":[1,3,5,-1,-1,7,-1,9,-1,-1,11,13,-1,15,-1,17,19,21,-1,-1,-1,-1,-1],"loss_changes":[2.1867709E-1,2.267894E-1,5.82174E-1,0E0,0E0,4.9943346E-1,0E0,4.5239317E-1,0E0,0E0,2.3902404E-1,3.0751705E-2,0E0,1.9312501E-2,0E0,1.711928E-2,5.5499065E-1,9.9777006E-2,0E0,0E0,0E0,0E0,0E0],"parents":[2147483647,0,0,1,1,2,2,5,5,7,7,10,10,11,11,13,13,15,15,16,16,17,17],"right_children":[2,4,6,-1,-1,8,-1,10,-1,-1,12,14,-1,16,-1,18,20,22,-1,-1,-1,-1,-1],"split_conditions":[9.63E2,3.996E3,1.284E3,-0E0,-2.9742345E-4,1.1442E4,-0E0,5.393E3,-0E0,-0E0,1E0,1E0,-0E0,6.61E3,-0E0,5.95E3,9.1E3,2E1,-0E0,4.016217E-3,-0E0,-0E0,7.141817E-4],"split_indices":[5,7,5,0,0,7,0,7,0,0,15,3,0,7,0,7,7,0,0,0,0,0,0],"split_type":[0,0,0,0,0,0,0,0,0,0,0,0,0,0,0,0,0,0,0,0,0,0,0],"sum_hessian":[9.03E2,4.45E2,4.58E2,2E1,4.25E2,3.08E2,1.5E2,2.03E2,1.05E2,2.4E1,1.79E2,1.69E2,1E1,1.2E2,4.9E1,8.6E1,3.4E1,3.7E1,4.9E1,1.6E1,1.8E1,1.3E1,2.4E1],"tree_param":{"num_deleted":"0","num_feature":"18","num_nodes":"23","size_leaf_vector":"1"}},{"base_weights":[-1.1684155E-2,-2.7884372E-2,-0E0,-0E0,-3.0462602E-2,-0E0,8.447053E-3,-3.835528E-4,-0E0,-0E0,3.252031E-2,1.0950034E-3,-0E0],"categories":[],"categories_nodes":[],"categories_segments":[],"categories_sizes":[],"default_left":[0,0,0,0,0,0,0,0,0,0,0,0,0],"id":5,"left_children":[1,3,5,-1,7,-1,9,-1,-1,-1,11,-1,-1],"loss_changes":[3.4481347E-1,7.9875916E-2,1.0774346E-2,0E0,1.7234325E-2,0E0,1.09790005E-1,0E0,0E0,0E0,2.3437944E-1,0E0,0E0],"parents":[2147483647,0,0,1,1,2,2,4,4,6,6,10,10],"right_children":[2,4,6,-1,8,-1,10,-1,-1,-1,12,-1,-1],"split_conditions":[1E0,7.02727E-1,8.25E2,-0E0,1.173E3,-0E0,7.70597E-1,-3.835528E-4,-0E0,-0E0,1.122E3,1.0950034E-3,-0E0],"split_indices":[3,6,5,0,5,0,6,0,0,0,5,0,0],"split_type":[0,0,0,0,0,0,0,0,0,0,0,0,0],"sum_hessian":[9.2E2,6.05E2,3.15E2,1.2E1,5.93E2,1.64E2,1.51E2,4.04E2,1.89E2,3.7E1,1.14E2,3.1E1,8.3E1],"tree_param":{"num_deleted":"0","num_feature":"18","num_nodes":"13","size_leaf_vector":"1"}},{"base_weights":[-0E0,-7.0320815E-3,2.8509644E-3,-2.7447715E-2,-0E0,-0E0,-3.7050285E-4,1.5399966E-2,-0E0,-0E0,1.1035081E-1,2.681979E-3,-0E0],"categories":[],"categories_nodes":[],"categories_segments":[],"categories_sizes":[],"default_left":[0,0,0,0,0,0,0,0,0,0,0,0,0],"id":6,"left_children":[1,3,-1,5,7,-1,-1,9,-1,-1,11,-1,-1],"loss_changes":[1.4408404E0,3.246883E-1,0E0,1.9523847E-1,6.92507E-2,0E0,0E0,6.979344E-1,0E0,0E0,3.3185637E-1,0E0,0E0],"parents":[2147483647,0,0,1,1,3,3,4,4,7,7,10,10],"right_children":[2,4,-1,6,8,-1,-1,10,-1,-1,12,-1,-1],"split_conditions":[1E0,1.7E1,2.8509644E-3,8E0,8.89838E-1,-0E0,-3.7050285E-4,8.7762E-1,-0E0,-0E0,2.1E1,2.681979E-3,-0E0],"split_indices":[12,0,0,0,6,0,0,6,0,0,0,0,0],"split_type":[0,0,0,0,0,0,0,0,0,0,0,0,0],"sum_hessian":[9.02E2,8.84E2,1.8E1,4.89E2,3.95E2,5.9E1,4.3E2,2.92E2,1.03E2,2.29E2,6.3E1,1.6E1,4.7E1],"tree_param":{"num_deleted":"0","num_feature":"18","num_nodes":"13","size_leaf_vector":"1"}},{"base_weights":[-0E0,-9.681952E-3,2.4070202E-3,-2.271359E-2,-0E0,-0E0,-3.2122602E-4,1.3393307E-2,-0E0,-0E0,5.078422E-2,1.0084418E-3,-0E0],"categories":[],"categories_nodes":[],"categories_segments":[],"categories_sizes":[],"default_left":[0,0,0,0,0,0,0,0,0,0,0,0,0],"id":7,"left_children":[1,3,-1,5,7,-1,-1,9,-1,-1,11,-1,-1],"loss_changes":[8.5821295E-1,2.5378758E-1,0E0,1.8579459E-1,2.565166E-2,0E0,0E0,2.2451812E-1,0E0,0E0,4.1988167E-1,0E0,0E0],"parents":[2147483647,0,0,1,1,3,3,4,4,7,7,10,10],"right_children":[2,4,-1,6,8,-1,-1,10,-1,-1,12,-1,-1],"split_conditions":[2E0,4.5E1,2.4070202E-3,9E0,5.4E1,-0E0,-3.2122602E-4,7.70152E-1,-0E0,-0E0,2.923399E0,1.0084418E-3,-0E0],"split_indices":[12,1,0,1,1,0,0,6,0,0,8,0,0],"split_type":[0,0,0,0,0,0,0,0,0,0,0,0,0],"sum_hessian":[9.06E2,8.92E2,1.4E1,6.54E2,2.38E2,1.23E2,5.31E2,1.43E2,9.5E1,4.6E1,9.7E1,6.9E1,2.8E1],"tree_param":{"num_deleted":"0","num_feature":"18","num_nodes":"13","size_leaf_vector":"1"}},{"base_weights":[-0E0,-1.51431095E-2,3.036618E-2,-2.9004028E-2,-0E0,5.8442764E-2,-0E0,-3.0773116E-4,-0E0,-0E0,9.076568E-2,1.0018552E-1,-0E0,1.1074388E-1,-0E0,1.376928E-1,-0E0,1.6174469E-3,-0E0],"categories":[],"categories_nodes":[],"categories_segments":[],"categories_sizes":[],"default_left":[0,0,0,0,0,0,0,0,0,0,0,0,0,0,0,0,0,0,0],"id":8,"left_children":[1,3,5,7,-1,9,-1,-1,-1,-1,11,13,-1,15,-1,17,-1,-1,-1],"loss_changes":[5.199792E-1,1.9200659E-1,7.7957857E-1,5.908042E-3,0E0,5.7581913E-1,0E0,0E0,0E0,0E0,2.662835E-1,3.049271E-1,0E0,2.5497007E-1,0E0,7.554793E-2,0E0,0E0,0E0],"parents":[2147483647,0,0,1,1,2,2,3,3,5,5,10,10,11,11,13,13,15,15],"right_children":[2,4,6,8,-1,10,-1,-1,-1,-1,12,14,-1,16,-1,18,-1,-1,-1],"split_conditions":[9.63E2,4.8E1,8.89838E-1,9.33E2,-0E0,7.73875E-1,-0E0,-3.0773116E-4,-0E0,-0E0,1E0,1E0,-0E0,4.2E1,-0E0,1.281E3,-0E0,1.6174469E-3,-0E0],"split_indices":[5,1,6,5,0,6,0,0,0,0,14,17,0,1,0,5,0,0,0],"split_type":[0,0,0,0,0,0,0,0,0,0,0,0,0,0,0,0,0,0,0],"sum_hessian":[9.05E2,4.54E2,4.51E2,3.52E2,1.02E2,3.5E2,1.01E2,3.34E2,1.8E1,1.35E2,2.15E2,2.03E2,1.2E1,1.91E2,1.2E1,1.37E2,5.4E1,1.07E2,3E1],"tree_param":{"num_deleted":"0","num_feature":"18","num_nodes":"19","size_leaf_vector":"1"}},{"base_weights":[-0E0,-1.6897645E-2,3.147363E-2,-0E0,-3.0036614E-4,8.130563E-2,-5.4847227E-5,1.3807032E-1,-0E0,1.7998208E-1,-0E0,-0E0,2.2196834E-1,2.456116E-1,-0E0,7.97464E-2,5.656984E-1,9.460175E-2,-0E0,-0E0,9.663689E-3,1.1678911E-3,-0E0],"categories":[],"categories_nodes":[],"categories_segments":[],"categories_sizes":[],"default_left":[0,0,0,0,0,0,0,0,0,0,0,0,0,0,0,0,0,0,0,0,0,0,0],"id":9,"left_children":[1,3,5,-1,-1,7,-1,9,-1,11,-1,-1,13,15,-1,17,19,21,-1,-1,-1,-1,-1],"loss_changes":[5.8269864E-1,2.3359504E-1,1.5809208E0,0E0,0E0,2.0244567E0,0E0,1.5435929E0,0E0,1.6878891E0,0E0,0E0,9.7259426E-1,1.075737E0,0E0,1.9540852E-1,4.736328E0,1.9909692E-1,0E0,0E0,0E0,0E0,0E0],"parents":[2147483647,0,0,1,1,2,2,5,5,7,7,9,9,12,12,13,13,15,15,16,16,17,17],"right_children":[2,4,6,-1,-1,8,-1,10,-1,12,-1,-1,14,16,-1,18,20,22,-1,-1,-1,-1,-1],"split_conditions":[9.63E2,3.996E3,1.284E3,-0E0,-3.0036614E-4,1.1442E4,-5.4847227E-5,4.8E1,-0E0,5.393E3,-0E0,-0E0,1E0,1.224E3,-0E0,4.2E1,2.1E1,1.206E3,-0E0,-0E0,9.663689E-3,1.1678911E-3,-0E0],"split_indices":[5,7,5,0,0,7,0,1,0,7,0,0,14,5,0,1,1,5,0,0,0,0,0],"split_type":[0,0,0,0,0,0,0,0,0,0,0,0,0,0,0,0,0,0,0,0,0,0,0],"sum_hessian":[8.95E2,4.31E2,4.64E2,1.7E1,4.14E2,3.08E2,1.56E2,2.13E2,9.5E1,1.73E2,4E1,2.5E1,1.48E2,1.37E2,1.1E1,1.1E2,2.7E1,1E2,1E1,1.2E1,1.5E1,8.4E1,1.6E1],"tree_param":{"num_deleted":"0","num_feature":"18","num_nodes":"23","size_leaf_vector":"1"}},{"base_weights":[-0E0,-2.2391217E-2,2.2690976E-2,-0E0,-3.5470666E-4,-0E0,4.7530495E-2,6.1227027E-3,3.9052304E-3,3.145084E-2,-0E0,-0E0,7.606449E-2,-0E0,9.221114E-2,-0E0,1.4294782E-3],"categories":[],"categories_nodes":[],"categories_segments":[],"categories_sizes":[],"default_left":[0,0,0,0,0,0,0,0,0,0,0,0,0,0,0,0,0],"id":10,"left_children":[1,3,5,-1,-1,-1,7,-1,9,11,-1,-1,13,-1,15,-1,-1],"loss_changes":[4.6563157E-1,2.891911E-1,5.928633E-1,0E0,0E0,0E0,3.1076047E0,0E0,1.4487782E-1,4.166633E-1,0E0,0E0,1.8124908E-1,0E0,3.054136E-1,0E0,0E0],"parents":[2147483647,0,0,1,1,2,2,6,6,8,8,9,9,12,12,14,14],"right_children":[2,4,6,-1,-1,-1,8,-1,10,12,-1,-1,14,-1,16,-1,-1],"split_conditions":[9.63E2,3.996E3,5.385E3,-0E0,-3.5470666E-4,-0E0,5.422E3,6.1227027E-3,2.746534E0,2.582862E0,-0E0,-0E0,1.023E3,-0E0,5.867E3,-0E0,1.4294782E-3],"split_indices":[5,7,7,0,0,0,7,0,8,8,0,0,5,0,7,0,0],"split_type":[0,0,0,0,0,0,0,0,0,0,0,0,0,0,0,0,0],"sum_hessian":[9.16E2,4.44E2,4.72E2,1.8E1,4.26E2,1.02E2,3.7E2,1.1E1,3.59E2,1.52E2,2.07E2,5.4E1,9.8E1,1E1,8.8E1,3.4E1,5.4E1],"tree_param":{"num_deleted":"0","num_feature":"18","num_nodes":"17","size_leaf_vector":"1"}},{"base_weights":[-0E0,-4.097504E-4,2.6451785E-2,6.5316685E-2,-0E0,-0E0,4.9380794E-1,2.379841E-2,-0E0,1.2448848E-2,-0E0,8.27509E-2,-0E0,-0E0,-1.1031133E-4,-0E0,1.8920882E-3],"categories":[],"categories_nodes":[],"categories_segments":[],"categories_sizes":[],"default_left":[0,0,0,0,0,0,0,0,0,0,0,0,0,0,0,0,0],"id":11,"left_children":[1,-1,3,5,-1,7,9,11,13,-1,-1,15,-1,-1,-1,-1,-1],"loss_changes":[1.032578E0,0E0,1.0071208E0,4.7653785E0,0E0,4.4743482E-2,1.0183361E1,2.428689E-1,1.8940033E-2,0E0,0E0,4.303097E-1,0E0,0E0,0E0,0E0,0E0],"parents":[2147483647,0,0,2,2,3,3,5,5,6,6,7,7,8,8,11,11],"right_children":[2,-1,4,6,-1,8,10,12,14,-1,-1,16,-1,-1,-1,-1,-1],"split_conditions":[9.63E2,-4.097504E-4,1.284E3,8.81903E-1,-0E0,1.5E1,8.85895E-1,1.092E3,3E0,1.2448848E-2,-0E0,4E0,-0E0,-0E0,-1.1031133E-4,-0E0,1.8920882E-3],"split_indices":[5,0,5,6,0,1,6,5,2,0,0,2,0,0,0,0,0],"split_type":[0,0,0,0,0,0,0,0,0,0,0,0,0,0,0,0,0],"sum_hessian":[9.05E2,4.42E2,4.63E2,3.12E2,1.51E2,2.87E2,2.5E1,7.9E1,2.08E2,1.1E1,1.4E1,4.2E1,3.7E1,4.5E1,1.63E2,2.1E1,2.1E1],"tree_param":{"num_deleted":"0","num_feature":"18","num_nodes":"17","size_leaf_vector":"1"}},{"base_weights":[-0E0,-6.549967E-3,5.3584677E-1,-2.5643185E-2,-0E0,-0E0,1.0713844E-2,-2.8611138E-4,-0E0,5.0416462E-2,-0E0,-0E0,8.0917284E-2,-3.5287947E-5,-0E0,1.2713361E-1,-0E0,1.5368554E-1,-0E0,-0E0,3.4910105E-3],"categories":[],"categories_nodes":[],"categories_segments":[],"categories_sizes":[],"default_left":[0,0,0,0,0,0,0,0,0,0,0,0,0,0,0,0,0,0,0,0,0],"id":12,"left_children":[1,3,5,7,9,-1,-1,-1,-1,11,13,-1,15,-1,-1,17,-1,19,-1,-1,-1],"loss_changes":[5.780703E0,3.2790044E-1,5.2191167E0,3.3819616E-2,4.041525E-1,0E0,0E0,0E0,0E0,3.8156837E-1,1.7717084E-3,0E0,7.012909E-1,0E0,0E0,4.2617643E-1,0E0,9.96279E-1,0E0,0E0,0E0],"parents":[2147483647,0,0,1,1,2,2,3,3,4,4,9,9,10,10,12,12,15,15,17,17],"right_children":[2,4,6,8,10,-1,-1,-1,-1,12,14,-1,16,-1,-1,18,-1,20,-1,-1,-1],"split_conditions":[1E0,1.086E3,2.770966E0,3.28003E0,1.263E3,-0E0,1.0713844E-2,-2.8611138E-4,-0E0,2.577464E0,5.4E1,-0E0,2.837853E0,-3.5287947E-5,-0E0,5.4E1,-0E0,3.6E1,-0E0,-0E0,3.4910105E-3],"split_indices":[12,5,8,8,5,0,0,0,0,8,1,0,8,0,0,1,0,1,0,0,0],"split_type":[0,0,0,0,0,0,0,0,0,0,0,0,0,0,0,0,0,0,0,0,0],"sum_hessian":[8.99E2,8.79E2,2E1,5.56E2,3.23E2,1E1,1E1,5.11E2,4.5E1,1.59E2,1.64E2,3.9E1,1.2E2,1.49E2,1.5E1,9.2E1,2.8E1,8.1E1,1.1E1,5.6E1,2.5E1],"tree_param":{"num_deleted":"0","num_feature":"18","num_nodes":"21","size_leaf_vector":"1"}},{"base_weights":[-0E0,-6.0257367E-3,1.6682027E-2,-0E0,-1.3963465E-2,8.418556E-2,-0E0,-2.325889E-4,-0E0,-0E0,2.7613238E-1,-0E0,-2.2014616E-4,-0E0,4.2890018E-1,7.9739345E-3,-0E0],"categories":[],"categories_nodes":[],"categories_segments":[],"categories_sizes":[],"default_left":[0,0,0,0,0,0,0,0,0,0,0,0,0,0,0,0,0],"id":13,"left_children":[1,3,5,-1,7,9,11,-1,-1,-1,13,-1,-1,-1,15,-1,-1],"loss_changes":[1.3877535E-1,6.169255E-2,1.2955592E0,0E0,8.724246E-2,2.3188496E0,1.0181153E-1,0E0,0E0,0E0,2.5184102E0,0E0,0E0,0E0,1.6389732E0,0E0,0E0],"parents":[2147483647,0,0,1,1,2,2,4,4,5,5,6,6,10,10,14,14],"right_children":[2,4,6,-1,8,10,12,-1,-1,-1,14,-1,-1,-1,16,-1,-1],"split_conditions":[8.22983E-1,7.228E-1,8.89838E-1,-0E0,4.8E1,8.83331E-1,3.996E3,-2.325889E-4,-0E0,-0E0,5.385E3,-0E0,-2.2014616E-4,-0E0,8.85895E-1,7.9739345E-3,-0E0],"split_indices":[6,6,6,0,1,6,7,0,0,0,7,0,0,0,6,0,0],"split_type":[0,0,0,0,0,0,0,0,0,0,0,0,0,0,0,0,0],"sum_hessian":[9.03E2,4.65E2,4.38E2,6.2E1,4.03E2,2E2,2.38E2,3.21E2,8.2E1,1.51E2,4.9E1,1.8E1,2.2E2,1.5E1,3.4E1,1.3E1,2.1E1],"tree_param":{"num_deleted":"0","num_feature":"18","num_nodes":"17","size_leaf_vector":"1"}},{"base_weights":[-0E0,-2.8541495E-4,2.1120986E-2,7.3307164E-2,-4.034063E-5,1.040905E-1,-0E0,-0E0,1.3715063E-1,1.5665966E-1,-0E0,5.7121455E-3,5.190508E-2,-0E0,9.138082E-2,1.3749949E-3,-0E0],"categories":[],"categories_nodes":[],"categories_segments":[],"categories_sizes":[],"default_left":[0,0,0,0,0,0,0,0,0,0,0,0,0,0,0,0,0],"id":14,"left_children":[1,-1,3,5,-1,7,-1,-1,9,11,-1,-1,13,-1,15,-1,-1],"loss_changes":[5.6438535E-1,0E0,1.2010173E0,5.908438E-1,0E0,9.060457E-1,0E0,0E0,5.579469E-1,3.0327797E-2,0E0,0E0,4.2636135E-1,0E0,3.788182E-1,0E0,0E0],"parents":[2147483647,0,0,2,2,3,3,5,5,8,8,9,9,12,12,14,14],"right_children":[2,-1,4,6,-1,8,-1,-1,10,12,-1,-1,14,-1,16,-1,-1],"split_conditions":[1.023E3,-2.8541495E-4,1.284E3,1.1442E4,-4.034063E-5,5.393E3,-0E0,-0E0,3.022915E0,5.572E3,-0E0,5.7121455E-3,5.867E3,-0E0,2.821551E0,1.3749949E-3,-0E0],"split_indices":[5,0,5,7,0,7,0,0,8,7,0,0,7,0,8,0,0],"split_type":[0,0,0,0,0,0,0,0,0,0,0,0,0,0,0,0,0],"sum_hessian":[9E2,4.91E2,4.09E2,2.57E2,1.52E2,1.82E2,7.5E1,2.9E1,1.53E2,1.4E2,1.3E1,1E1,1.3E2,3.7E1,9.3E1,6.4E1,2.9E1],"tree_param":{"num_deleted":"0","num_feature":"18","num_nodes":"17","size_leaf_vector":"1"}},{"base_weights":[-0E0,-1.0567042E-2,4.9092805E-1,-2.9947648E-2,-0E0,-0E0,9.553829E-3,-0E0,-3.5854835E-2,4.535595E-2,-0E0,-0E0,-4.1319258E-4,-0E0,8.567944E-2,1.06341965E-1,-0E0,1.3142414E-1,-0E0,-0E0,1.8322474E-3],"categories":[],"categories_nodes":[],"categories_segments":[],"categories_sizes":[],"default_left":[0,0,0,0,0,0,0,0,0,0,0,0,0,0,0,0,0,0,0,0,0],"id":15,"left_children":[1,3,5,7,9,-1,-1,-1,11,13,-1,-1,-1,-1,15,17,-1,19,-1,-1,-1],"loss_changes":[5.641019E0,4.2000887E-1,3.1732898E0,1.0858351E-1,2.982911E-1,0E0,0E0,0E0,3.7440658E-2,4.9454248E-1,0E0,0E0,0E0,0E0,2.9280746E-1,2.7889252E-1,0E0,1.7422414E-1,0E0,0E0,0E0],"parents":[2147483647,0,0,1,1,2,2,3,3,4,4,8,8,9,9,14,14,15,15,17,17],"right_children":[2,4,6,8,10,-1,-1,-1,12,14,-1,-1,-1,-1,16,18,-1,20,-1,-1,-1],"split_conditions":[1E0,1.119E3,2.770966E0,9E0,1.281E3,-0E0,9.553829E-3,-0E0,2.36411E0,2.582862E0,-0E0,-0E0,-4.1319258E-4,-0E0,2.966377E0,5.4E1,-0E0,1.8E1,-0E0,-0E0,1.8322474E-3],"split_indices":[12,5,8,1,5,0,0,0,8,8,0,0,0,0,8,1,0,1,0,0,0],"split_type":[0,0,0,0,0,0,0,0,0,0,0,0,0,0,0,0,0,0,0,0,0],"sum_hessian":[8.96E2,8.73E2,2.3E1,5.77E2,2.96E2,1.3E1,1E1,9E1,4.87E2,1.45E2,1.51E2,8E1,4.07E2,3.7E1,1.08E2,9.6E1,1.2E1,7.9E1,1.7E1,3.1E1,4.8E1],"tree_param":{"num_deleted":"0","num_feature":"18","num_nodes":"21","size_leaf_vector":"1"}},{"base_weights":[-4.2178715E-3,-2.8960308E-2,6.219464E-3,-3.3775097E-4,-0E0,-0E0,3.2649368E-2,6.009509E-3,-0E0],"categories":[],"categories_nodes":[],"categories_segments":[],"categories_sizes":[],"default_left":[0,0,0,0,0,0,0,0,0],"id":16,"left_children":[1,3,5,-1,-1,-1,7,-1,-1],"loss_changes":[4.4820386E-1,1.2566149E-2,2.6350173E-1,0E0,0E0,0E0,3.5165982E0,0E0,0E0],"parents":[2147483647,0,0,1,1,2,2,6,6],"right_children":[2,4,6,-1,-1,-1,8,-1,-1],"split_conditions":[1.8E1,1.6E1,5.385E3,-3.3775097E-4,-0E0,-0E0,5.434E3,6.009509E-3,-0E0],"split_indices":[0,0,7,0,0,0,7,0,0],"split_type":[0,0,0,0,0,0,0,0,0],"sum_hessian":[8.9E2,5.37E2,3.53E2,4.25E2,1.12E2,9.3E1,2.6E2,1.1E1,2.49E2],"tree_param":{"num_deleted":"0","num_feature":"18","num_nodes":"9","size_leaf_vector":"1"}},{"base_weights":[-2.9323723E-3,-1.5244902E-2,-0E0,-0E0,-2.5409266E-2,1.1191827E-2,-0E0,-0E0,-3.0893565E-4,-0E0,3.0670512E-2,-0E0,4.5955196E-2,6.1039217E-2,-0E0,8.1604786E-2,-0E0,1.1384643E-3,-0E0],"categories":[],"categories_nodes":[],"categories_segments":[],"categories_sizes":[],"default_left":[0,0,0,0,0,0,0,0,0,0,0,0,0,0,0,0,0,0,0],"id":17,"left_children":[1,3,5,-1,7,9,-1,-1,-1,-1,11,-1,13,15,-1,17,-1,-1,-1],"loss_changes":[1.07612625E-1,1.8946438E-1,3.1815436E-2,0E0,1.0628173E-1,1.3092344E-1,0E0,0E0,0E0,0E0,1.5404578E-1,0E0,1.824753E-1,1.0674834E-1,0E0,3.3460057E-1,0E0,0E0,0E0],"parents":[2147483647,0,0,1,1,2,2,4,4,5,5,10,10,12,12,13,13,15,15],"right_children":[2,4,6,-1,8,10,-1,-1,-1,-1,12,-1,14,16,-1,18,-1,-1,-1],"split_conditions":[1.023E3,3.996E3,1.284E3,-0E0,7.20321E-1,7.74271E-1,-0E0,-0E0,-3.0893565E-4,-0E0,5.385E3,-0E0,8.84964E-1,3.9E1,-0E0,1.1442E4,-0E0,1.1384643E-3,-0E0],"split_indices":[5,7,5,0,6,6,0,0,0,0,7,0,6,1,0,7,0,0,0],"split_type":[0,0,0,0,0,0,0,0,0,0,0,0,0,0,0,0,0,0,0],"sum_hessian":[8.91E2,4.96E2,3.95E2,2.4E1,4.72E2,2.54E2,1.41E2,2.1E1,4.51E2,8.1E1,1.73E2,2.3E1,1.5E2,1.34E2,1.6E1,9.1E1,4.3E1,7.6E1,1.5E1],"tree_param":{"num_deleted":"0","num_feature":"18","num_nodes":"19","size_leaf_vector":"1"}},{"base_weights":[-0E0,-3.1503674E-3,3.055482E-3,-0E0,-8.395554E-3,-2.4425407E-4,-0E0,-8.512453E-3,1.362011E-2,-0E0,-1.2646919E-2,6.796715E-2,-0E0,-0E0,-1.6829162E-4,-0E0,1.6441628E-1,-0E0,3.2273089E-3],"categories":[],"categories_nodes":[],"categories_segments":[],"categories_sizes":[],"default_left":[0,0,0,0,0,0,0,0,0,0,0,0,0,0,0,0,0,0,0],"id":18,"left_children":[1,3,-1,-1,5,-1,7,9,11,-1,13,15,-1,-1,-1,-1,17,-1,-1],"loss_changes":[1.4352933E0,5.2146718E-2,0E0,0E0,7.404569E-2,0E0,6.461106E-2,3.0877884E-2,3.7055412E-1,0E0,3.0517139E-2,1.9284824E-1,0E0,0E0,0E0,0E0,4.993853E-1,0E0,0E0],"parents":[2147483647,0,0,1,1,4,4,6,6,7,7,8,8,10,10,11,11,16,16],"right_children":[2,4,-1,-1,6,-1,8,10,12,-1,14,16,-1,-1,-1,-1,18,-1,-1],"split_conditions":[2E0,3.996E3,3.055482E-3,-0E0,5.415E3,-2.4425407E-4,8.3004E-1,7.20321E-1,8.84224E-1,-0E0,5.861E3,8.7762E-1,-0E0,-0E0,-1.6829162E-4,-0E0,5.906E3,-0E0,3.2273089E-3],"split_indices":[12,7,0,0,7,0,6,6,6,0,7,6,0,0,0,0,7,0,0],"split_type":[0,0,0,0,0,0,0,0,0,0,0,0,0,0,0,0,0,0,0],"sum_hessian":[9.05E2,8.89E2,1.6E1,2.4E1,8.65E2,2.37E2,6.28E2,4.59E2,1.69E2,5.8E1,4.01E2,8.7E1,8.2E1,5.1E1,3.5E2,6.5E1,2.2E1,1.1E1,1.1E1],"tree_param":{"num_deleted":"0","num_feature":"18","num_nodes":"19","size_leaf_vector":"1"}},{"base_weights":[-1.0454066E-3,-0E0,-2.6993093E-4,-0E0,2.119078E-1,-0E0,-1.122974E-2,3.50629E-3,-0E0,-1.4974909E-2,-0E0,-1.9645656E-2,-0E0,-2.2417116E-4,-0E0],"categories":[],"categories_nodes":[],"categories_segments":[],"categories_sizes":[],"default_left":[0,0,0,0,0,0,0,0,0,0,0,0,0,0,0],"id":19,"left_children":[1,3,-1,5,7,-1,9,-1,-1,11,-1,13,-1,-1,-1],"loss_changes":[1.7365885E-1,1.0777738E0,0E0,6.784576E-2,3.3109784E-1,0E0,4.5399696E-2,0E0,0E0,1.0259584E-2,0E0,9.41509E-3,0E0,0E0,0E0],"parents":[2147483647,0,0,1,1,3,3,4,4,6,6,9,9,11,11],"right_children":[2,4,-1,6,8,-1,10,-1,-1,12,-1,14,-1,-1,-1],"split_conditions":[8.86618E-1,8.83331E-1,-2.6993093E-4,7.25635E-1,8.84964E-1,-0E0,8.7762E-1,3.50629E-3,-0E0,1E0,-0E0,8.22983E-1,-0E0,-2.2417116E-4,-0E0],"split_indices":[6,6,0,6,6,0,6,0,0,3,0,6,0,0,0],"split_type":[0,0,0,0,0,0,0,0,0,0,0,0,0,0,0],"sum_hessian":[8.93E2,6.42E2,2.51E2,6.18E2,2.4E1,8E1,5.38E2,1.2E1,1.2E1,5.05E2,3.3E1,3.2E2,1.85E2,2.77E2,4.3E1],"tree_param":{"num_deleted":"0","num_feature":"18","num_nodes":"15","size_leaf_vector":"1"}},{"base_weights":[-1.2330119E-2,-3.3720484E-4,-0E0,8.454484E-3,-1.1278414E-2,-0E0,1.5530623E-2,-1.4897401E-4,-0E0,2.5249904E-4,-0E0],"categories":[],"categories_nodes":[],"categories_segments":[],"categories_sizes":[],"default_left":[0,0,0,0,0,0,0,0,0,0,0],"id":20,"left_children":[1,-1,3,5,7,-1,9,-1,-1,-1,-1],"loss_changes":[2.2049798E-1,0E0,5.878441E-2,4.6807267E-2,1.1344492E-2,0E0,7.54273E-2,0E0,0E0,0E0,0E0],"parents":[2147483647,0,0,2,2,3,3,4,4,6,6],"right_children":[2,-1,4,6,8,-1,10,-1,-1,-1,-1],"split_conditions":[2.629667E0,-3.3720484E-4,2.923399E0,5.1E1,3.28003E0,-0E0,1.263E3,-1.4897401E-4,-0E0,2.5249904E-4,-0E0],"split_indices":[8,0,8,5,8,0,5,0,0,0,0],"split_type":[0,0,0,0,0,0,0,0,0,0,0],"sum_hessian":[9.35E2,3.34E2,6.01E2,3.17E2,2.84E2,2.9E1,2.88E2,2.24E2,6E1,2.38E2,5E1],"tree_param":{"num_deleted":"0","num_feature":"18","num_nodes":"11","size_leaf_vector":"1"}},{"base_weights":[-0E0,-0E0,3.5941359E-3,-2.2268128E-2,8.9672115E-3,-0E0,-2.4879948E-4,7.438381E-2,-0E0,1.8713617E-1,-0E0,-0E0,2.9507377E-3],"categories":[],"categories_nodes":[],"categories_segments":[],"categories_sizes":[],"default_left":[0,0,0,0,0,0,0,0,0,0,0,0,0],"id":21,"left_children":[1,3,-1,5,7,-1,-1,9,-1,11,-1,-1,-1],"loss_changes":[1.9737505E0,2.7656174E-1,0E0,1.6299263E-2,5.161674E-1,0E0,0E0,1.3783715E0,0E0,6.513071E-1,0E0,0E0,0E0],"parents":[2147483647,0,0,1,1,3,3,4,4,7,7,9,9],"right_children":[2,4,-1,6,8,-1,-1,10,-1,12,-1,-1,-1],"split_conditions":[2E0,1.023E3,3.5941359E-3,6E0,3E0,-0E0,-2.4879948E-4,1.263E3,-0E0,1.128E3,-0E0,-0E0,2.9507377E-3],"split_indices":[12,5,0,1,2,0,0,5,0,5,0,0,0],"split_type":[0,0,0,0,0,0,0,0,0,0,0,0,0],"sum_hessian":[9.03E2,8.87E2,1.6E1,4.94E2,3.93E2,5.2E1,4.42E2,9.9E1,2.94E2,5.5E1,4.4E1,2.4E1,3.1E1],"tree_param":{"num_deleted":"0","num_feature":"18","num_nodes":"13","size_leaf_vector":"1"}},{"base_weights":[-1.1238026E-3,-3.298928E-4,7.475057E-3,6.855861E-2,-0E0,-0E0,1.2612395E-1,1.5268533E-1,-0E0,2.8847468E-3,-0E0],"categories":[],"categories_nodes":[],"categories_segments":[],"categories_sizes":[],"default_left":[0,0,0,0,0,0,0,0,0,0,0],"id":22,"left_children":[1,-1,3,5,-1,-1,7,9,-1,-1,-1],"loss_changes":[4.740002E-1,0E0,3.8848627E-1,5.7263863E-1,0E0,0E0,1.7940009E-1,2.637422E-2,0E0,0E0,0E0],"parents":[2147483647,0,0,2,2,3,3,6,6,7,7],"right_children":[2,-1,4,6,-1,-1,8,10,-1,-1,-1],"split_conditions":[1.6E1,-3.298928E-4,1.2E1,2.637643E0,-0E0,-0E0,9.1E3,1.9E1,-0E0,2.8847468E-3,-0E0],"split_indices":[0,0,1,8,0,0,7,0,0,0,0],"split_type":[0,0,0,0,0,0,0,0,0,0,0],"sum_hessian":[8.83E2,4.33E2,4.5E2,8.8E1,3.62E2,2.6E1,6.2E1,5E1,1.2E1,1.5E1,3.5E1],"tree_param":{"num_deleted":"0","num_feature":"18","num_nodes":"11","size_leaf_vector":"1"}},{"base_weights":[-0E0,-5.3853923E-3,5.0491405E-1,-1.982292E-2,-0E0,-0E0,1.0371365E-2,-0E0,-2.4332108E-2,-0E0,2.1160508E-2,-0E0,-2.6049357E-4,7.948475E-2,-0E0,-0E0,1.2922257E-1,1.985919E-1,-0E0,-0E0,3.8056807E-3],"categories":[],"categories_nodes":[],"categories_segments":[],"categories_sizes":[],"default_left":[0,0,0,0,0,0,0,0,0,0,0,0,0,0,0,0,0,0,0,0,0],"id":23,"left_children":[1,3,5,7,9,-1,-1,-1,11,-1,13,-1,-1,15,-1,-1,17,19,-1,-1,-1],"loss_changes":[5.6352916E0,1.8625116E-1,4.663522E0,8.5809246E-2,8.194193E-2,0E0,0E0,0E0,4.8481524E-3,0E0,6.06709E-1,0E0,0E0,6.8064445E-1,0E0,0E0,7.210071E-1,5.3752136E-1,0E0,0E0,0E0],"parents":[2147483647,0,0,1,1,2,2,3,3,4,4,8,8,10,10,13,13,16,16,17,17],"right_children":[2,4,6,8,10,-1,-1,-1,12,-1,14,-1,-1,16,-1,-1,18,20,-1,-1,-1],"split_conditions":[1E0,3.6E1,2.770966E0,7.228E-1,8.3004E-1,-0E0,1.0371365E-2,-0E0,3E0,-0E0,2.923399E0,-0E0,-2.6049357E-4,2.582862E0,-0E0,-0E0,2.1E1,8.7986E-1,-0E0,-0E0,3.8056807E-3],"split_indices":[12,1,8,6,6,0,0,0,1,0,8,0,0,8,0,0,0,6,0,0,0],"split_type":[0,0,0,0,0,0,0,0,0,0,0,0,0,0,0,0,0,0,0,0,0],"sum_hessian":[9.3E2,9.08E2,2.2E1,5.41E2,3.67E2,1.2E1,1E1,3.7E1,5.04E2,1.84E2,1.83E2,3.6E1,4.68E2,1.09E2,7.4E1,2.7E1,8.2E1,5.3E1,2.9E1,3.4E1,1.9E1],"tree_param":{"num_deleted":"0","num_feature":"18","num_nodes":"21","size_leaf_vector":"1"}},{"base_weights":[-4.098028E-3,-2.1290008E-2,-0E0,-0E0,-3.528838E-4,-0E0,8.705702E-2,-1.7627412E-2,-0E0,5.0110756E-3,-0E0,-2.2875095E-2,-0E0,-0E0,-2.6490303E-2,-0E0,-3.0201013E-4],"categories":[],"categories_nodes":[],"categories_segments":[],"categories_sizes":[],"default_left":[0,0,0,0,0,0,0,0,0,0,0,0,0,0,0,0,0],"id":24,"left_children":[1,3,5,-1,-1,7,9,11,-1,-1,-1,13,-1,-1,15,-1,-1],"loss_changes":[1.6177677E-1,2.5605482E-1,3.865345E-1,0E0,0E0,1.3703041E-1,2.2513342E0,8.588323E-2,0E0,0E0,0E0,6.830774E-2,0E0,0E0,4.932061E-2,0E0,0E0],"parents":[2147483647,0,0,1,1,2,2,5,5,6,6,7,7,11,11,14,14],"right_children":[2,4,6,-1,-1,8,10,12,-1,-1,-1,14,-1,-1,16,-1,-1],"split_conditions":[5.867E3,3.996E3,8.7762E-1,-0E0,-3.528838E-4,1E0,2.854028E0,3.28003E0,-0E0,5.0110756E-3,-0E0,5.924E3,-0E0,-0E0,6.3E2,-0E0,-3.0201013E-4],"split_indices":[7,7,6,0,0,12,8,8,0,0,0,7,0,0,5,0,0],"split_type":[0,0,0,0,0,0,0,0,0,0,0,0,0,0,0,0,0],"sum_hessian":[8.93E2,3.9E2,5.03E2,2.6E1,3.64E2,4.52E2,5.1E1,4.41E2,1.1E1,1.1E1,4E1,4.26E2,1.5E1,1.1E1,4.15E2,2.4E1,3.91E2],"tree_param":{"num_deleted":"0","num_feature":"18","num_nodes":"17","size_leaf_vector":"1"}},{"base_weights":[-0E0,-1.0437728E-3,3.7462255E-3,-0E0,-3.09947E-4,-1.597367E-3,2.7714398E-2,-4.8262123E-3,-0E0,-0E0,5.6261484E-2,-0E0,-5.6349665E-5,-0E0,7.038723E-2,9.1162056E-4,-0E0],"categories":[],"categories_nodes":[],"categories_segments":[],"categories_sizes":[],"default_left":[0,0,0,0,0,0,0,0,0,0,0,0,0,0,0,0,0],"id":25,"left_children":[1,3,-1,5,-1,7,9,11,-1,-1,13,-1,-1,-1,15,-1,-1],"loss_changes":[2.681346E0,2.567918E-1,0E0,2.2511186E-1,0E0,6.391383E-3,2.9483947E-1,1.2690467E-3,0E0,0E0,2.0917535E-1,0E0,0E0,0E0,1.4462447E-1,0E0,0E0],"parents":[2147483647,0,0,1,1,3,3,5,5,6,6,7,7,10,10,14,14],"right_children":[2,4,-1,6,-1,8,10,12,-1,-1,14,-1,-1,-1,16,-1,-1],"split_conditions":[1E0,2.923399E0,3.7462255E-3,3.3E1,-3.09947E-4,2.887194E0,2.577464E0,3E0,-0E0,-0E0,3.6E1,-0E0,-5.6349665E-5,-0E0,5.4E1,9.1162056E-4,-0E0],"split_indices":[12,8,0,1,0,8,8,1,0,0,1,0,0,0,1,0,0],"split_type":[0,0,0,0,0,0,0,0,0,0,0,0,0,0,0,0,0],"sum_hessian":[9.18E2,8.98E2,2E1,6.17E2,2.81E2,3.25E2,2.92E2,3.1E2,1.5E1,1.28E2,1.64E2,3E1,2.8E2,1.7E1,1.47E2,1.1E2,3.7E1],"tree_param":{"num_deleted":"0","num_feature":"18","num_nodes":"17","size_leaf_vector":"1"}},{"base_weights":[-2.1486869E-4,-2.656574E-4,-0E0,1.8150627E-3,-0E0,-0E0,-5.040853E-3,-0E0,2.1186188E-2,-1.8249728E-2,-0E0,6.0207672E-2,-0E0,-2.168362E-2,-0E0,8.0809346E-4,-0E0,-2.6105923E-4,-0E0],"categories":[],"categories_nodes":[],"categories_segments":[],"categories_sizes":[],"default_left":[0,0,0,0,0,0,0,0,0,0,0,0,0,0,0,0,0,0,0],"id":26,"left_children":[1,-1,3,-1,5,7,9,-1,11,13,-1,15,-1,17,-1,-1,-1,-1,-1],"loss_changes":[1.7112906E-1,0E0,4.0899467E-1,0E0,9.655906E-3,5.969822E-2,1.1157563E-1,0E0,2.2305346E-1,3.2987863E-2,0E0,1.412715E-1,0E0,2.8647825E-2,0E0,0E0,0E0,0E0,0E0],"parents":[2147483647,0,0,2,2,4,4,5,5,6,6,8,8,9,9,11,11,13,13],"right_children":[2,-1,4,-1,6,8,10,-1,12,14,-1,16,-1,18,-1,-1,-1,-1,-1],"split_conditions":[5.393E3,-2.656574E-4,5.434E3,1.8150627E-3,6.325E3,5.831E3,3.339732E0,-0E0,2.849181E0,8.16597E-1,-0E0,5.1E1,-0E0,5.1E1,-0E0,8.0809346E-4,-0E0,-2.6105923E-4,-0E0],"split_indices":[7,0,7,0,7,7,8,0,8,6,0,1,0,1,0,0,0,0,0],"split_type":[0,0,0,0,0,0,0,0,0,0,0,0,0,0,0,0,0,0,0],"sum_hessian":[9E2,2.54E2,6.46E2,1.3E1,6.33E2,2.53E2,3.8E2,1.2E2,1.33E2,3.64E2,1.6E1,7.8E1,5.5E1,3.28E2,3.6E1,6.8E1,1E1,2.81E2,4.7E1],"tree_param":{"num_deleted":"0","num_feature":"18","num_nodes":"19","size_leaf_vector":"1"}},{"base_weights":[-0E0,1.3495816E-2,-2.3092118E-4,-0E0,4.4928145E-2,-0E0,-2.034098E-4,4.1104704E-3,1.111085E-2,3.5279386E-2,-0E0,-0E0,7.8251265E-2,-0E0,1.12110935E-1,1.4553348E-3,-0E0],"categories":[],"categories_nodes":[],"categories_segments":[],"categories_sizes":[],"default_left":[0,0,0,0,0,0,0,0,0,0,0,0,0,0,0,0,0],"id":27,"left_children":[1,3,-1,5,7,-1,-1,-1,9,11,-1,-1,13,-1,15,-1,-1],"loss_changes":[2.5154427E-1,7.099574E-1,0E0,8.770991E-2,9.946606E-1,0E0,0E0,0E0,3.3645788E-1,6.612469E-1,0E0,0E0,4.4862497E-1,0E0,5.672022E-1,0E0,0E0],"parents":[2147483647,0,0,1,1,3,3,4,4,8,8,9,9,12,12,14,14],"right_children":[2,4,-1,6,8,-1,-1,-1,10,12,-1,-1,14,-1,16,-1,-1],"split_conditions":[1.0818E4,5.385E3,-2.3092118E-4,3.996E3,5.422E3,-0E0,-2.034098E-4,4.1104704E-3,8.84224E-1,1.6E1,-0E0,-0E0,5.867E3,-0E0,4.8E1,1.4553348E-3,-0E0],"split_indices":[7,7,0,7,7,0,0,0,6,0,0,0,7,0,1,0,0],"split_type":[0,0,0,0,0,0,0,0,0,0,0,0,0,0,0,0,0],"sum_hessian":[9.16E2,6.57E2,2.59E2,2.46E2,4.11E2,2.4E1,2.22E2,1.1E1,4E2,3.1E2,9E1,1.39E2,1.71E2,5.2E1,1.19E2,1.02E2,1.7E1],"tree_param":{"num_deleted":"0","num_feature":"18","num_nodes":"17","size_leaf_vector":"1"}},{"base_weights":[8.4557413E-4,-0E0,3.645452E-3,-1.994269E-2,2.1067573E-2,-0E0,-2.7016886E-2,1.06049135E-1,-0E0,-0E0,-3.534104E-4,3.6421265E-3,-0E0],"categories":[],"categories_nodes":[],"categories_segments":[],"categories_sizes":[],"default_left":[0,0,0,0,0,0,0,0,0,0,0,0,0],"id":28,"left_children":[1,3,-1,5,7,-1,9,11,-1,-1,-1,-1,-1],"loss_changes":[2.283675E0,3.5831553E-1,0E0,1.5386075E-1,1.2460253E0,0E0,1.6726056E-1,1.9213924E0,0E0,0E0,0E0,0E0,0E0],"parents":[2147483647,0,0,1,1,3,3,4,4,6,6,7,7],"right_children":[2,4,-1,6,8,-1,10,12,-1,-1,-1,-1,-1],"split_conditions":[1E0,1.119E3,3.645452E-3,5.7E1,1.263E3,-0E0,7.228E-1,3E0,-0E0,-0E0,-3.534104E-4,3.6421265E-3,-0E0],"split_indices":[12,5,0,5,5,0,6,2,0,0,0,0,0],"split_type":[0,0,0,0,0,0,0,0,0,0,0,0,0],"sum_hessian":[8.86E2,8.68E2,1.8E1,5.84E2,2.84E2,5.5E1,5.29E2,1.22E2,1.62E2,6.5E1,4.64E2,2.6E1,9.6E1],"tree_param":{"num_deleted":"0","num_feature":"18","num_nodes":"13","size_leaf_vector":"1"}},{"base_weights":[-7.3235277E-3,-3.0175906E-2,-0E0,-0E0,-3.618467E-4,4.2328484E-2,-2.900281E-5,-0E0,9.630956E-2,1.2500088E-1,-0E0,-0E0,1.951436E-1,-0E0,2.437629E-1,-0E0,3.1027162E-1,-0E0,5.2641425E-3],"categories":[],"categories_nodes":[],"categories_segments":[],"categories_sizes":[],"default_left":[0,0,0,0,0,0,0,0,0,0,0,0,0,0,0,0,0,0,0],"id":29,"left_children":[1,3,5,-1,-1,7,-1,-1,9,11,-1,-1,13,-1,15,-1,17,-1,-1],"loss_changes":[4.3300098E-1,1.2967569E-1,4.1329014E-1,0E0,0E0,8.586659E-1,0E0,0E0,4.7928488E-1,7.2526956E-1,0E0,0E0,7.928791E-1,0E0,3.9012885E-1,0E0,3.1114435E-1,0E0,0E0],"parents":[2147483647,0,0,1,1,2,2,5,5,8,8,9,9,12,12,14,14,16,16],"right_children":[2,4,6,-1,-1,8,-1,-1,10,12,-1,-1,14,-1,16,-1,18,-1,-1],"split_conditions":[1.05E3,7.22153E-1,1.284E3,-0E0,-3.618467E-4,8.09591E-1,-2.900281E-5,-0E0,4.8E1,2.1E1,-0E0,-0E0,8.22983E-1,-0E0,2.582862E0,-0E0,8.76402E-1,-0E0,5.2641425E-3],"split_indices":[5,6,5,0,0,6,0,0,1,1,0,0,6,0,8,0,6,0,0],"split_type":[0,0,0,0,0,0,0,0,0,0,0,0,0,0,0,0,0,0,0],"sum_hessian":[9.08E2,5.29E2,3.79E2,4E1,4.89E2,2.3E2,1.49E2,9.3E1,1.37E2,1.12E2,2.5E1,4.7E1,6.5E1,1E1,5.5E1,1.7E1,3.8E1,2.3E1,1.5E1],"tree_param":{"num_deleted":"0","num_feature":"18","num_nodes":"19","size_leaf_vector":"1"}},{"base_weights":[-0E0,-6.5931333E-3,5.4757036E-3,-2.5861623E-4,-0E0,1.3654265E-2,-0E0,-0E0,7.871126E-2,-0E0,1.2155953E-3],"categories":[],"categories_nodes":[],"categories_segments":[],"categories_sizes":[],"default_left":[0,0,0,0,0,0,0,0,0,0,0],"id":30,"left_children":[1,3,-1,-1,5,7,-1,-1,9,-1,-1],"loss_changes":[5.4783664E0,2.6259404E-1,0E0,0E0,5.4253962E-2,2.555268E-1,0E0,0E0,2.4052745E-1,0E0,0E0],"parents":[2147483647,0,0,1,1,4,4,5,5,8,8],"right_children":[2,4,-1,-1,6,8,-1,-1,10,-1,-1],"split_conditions":[1E0,3.3E1,5.4757036E-3,-2.5861623E-4,2.923399E0,2.814851E0,-0E0,-0E0,3E0,-0E0,1.2155953E-3],"split_indices":[12,1,0,0,8,8,0,0,2,0,0],"split_type":[0,0,0,0,0,0,0,0,0,0,0],"sum_hessian":[8.98E2,8.79E2,1.9E1,4.71E2,4.08E2,2.91E2,1.17E2,2.41E2,5E1,1.1E1,3.9E1],"tree_param":{"num_deleted":"0","num_feature":"18","num_nodes":"11","size_leaf_vector":"1"}},{"base_weights":[-0E0,-4.9657845E-3,5.952409E-3,-1.43594965E-2,-0E0,-0E0,-2.111884E-2,1.5569248E-2,-0E0,-2.4117633E-4,-0E0,2.4266863E-2,-0E0,-0E0,3.3393066E-4],"categories":[],"categories_nodes":[],"categories_segments":[],"categories_sizes":[],"default_left":[0,0,0,0,0,0,0,0,0,0,0,0,0,0,0],"id":31,"left_children":[1,3,-1,5,7,-1,9,11,-1,-1,-1,13,-1,-1,-1],"loss_changes":[6.4503345E0,9.9724576E-2,0E0,1.1850226E-1,3.514852E-2,0E0,3.4980476E-2,4.317334E-2,0E0,0E0,0E0,2.17693E-2,0E0,0E0,0E0],"parents":[2147483647,0,0,1,1,3,3,4,4,6,6,7,7,11,11],"right_children":[2,4,-1,6,8,-1,10,12,-1,-1,-1,14,-1,-1,-1],"split_conditions":[1E0,1.119E3,5.952409E-3,5.7E1,1.281E3,-0E0,3.28003E0,2.966377E0,-0E0,-2.4117633E-4,-0E0,2.582862E0,-0E0,-0E0,3.3393066E-4],"split_indices":[12,5,0,5,5,0,8,8,0,0,0,8,0,0,0],"split_type":[0,0,0,0,0,0,0,0,0,0,0,0,0,0,0],"sum_hessian":[9E2,8.81E2,1.9E1,5.89E2,2.92E2,5.1E1,5.38E2,1.45E2,1.47E2,4.95E2,4.3E1,1.33E2,1.2E1,3.9E1,9.4E1],"tree_param":{"num_deleted":"0","num_feature":"18","num_nodes":"15","size_leaf_vector":"1"}},{"base_weights":[9.585617E-4,-1.4399128E-3,5.582303E-1,-0E0,-1.7045772E-2,-0E0,1.0050372E-2,-2.15496E-3,1.2738963E-2,-0E0,-2.5374853E-4,-5.163222E-3,-0E0,1.5703058E-2,-0E0,-8.907837E-5,-0E0,1.861814E-2,-0E0,-0E0,2.9836783E-2,5.066967E-2,-0E0,7.4186554E-4,-0E0],"categories":[],"categories_nodes":[],"categories_segments":[],"categories_sizes":[],"default_left":[0,0,0,0,0,0,0,0,0,0,0,0,0,0,0,0,0,0,0,0,0,0,0,0,0],"id":32,"left_children":[1,3,5,7,9,-1,-1,11,13,-1,-1,15,-1,17,-1,-1,-1,19,-1,-1,21,23,-1,-1,-1],"loss_changes":[6.54542E0,7.692542E-2,3.102028E0,5.2150212E-2,7.373748E-2,0E0,0E0,4.9888315E-3,2.3675073E-2,0E0,0E0,7.8999065E-3,0E0,2.674862E-2,0E0,0E0,0E0,3.85499E-2,0E0,0E0,1.9399944E-1,1.392189E-1,0E0,0E0,0E0],"parents":[2147483647,0,0,1,1,2,2,3,3,4,4,7,7,8,8,11,11,13,13,17,17,20,20,21,21],"right_children":[2,4,6,8,10,-1,-1,12,14,-1,-1,16,-1,18,-1,-1,-1,20,-1,-1,22,24,-1,-1,-1],"split_conditions":[1E0,2.923399E0,2.761939E0,2.61746E0,6E0,-0E0,1.0050372E-2,4.8E1,2.3E1,-0E0,-2.5374853E-4,1.9E1,-0E0,1E0,-0E0,-8.907837E-5,-0E0,1.7E1,-0E0,-0E0,2.854028E0,4.2E1,-0E0,7.4186554E-4,-0E0],"split_indices":[12,8,8,8,1,0,0,1,0,0,0,0,0,17,0,0,0,0,0,0,8,1,0,0,0],"split_type":[0,0,0,0,0,0,0,0,0,0,0,0,0,0,0,0,0,0,0,0,0,0,0,0,0],"sum_hessian":[8.97E2,8.76E2,2.1E1,6.05E2,2.71E2,1.1E1,1E1,2.92E2,3.13E2,2.3E1,2.48E2,2.38E2,5.4E1,3.02E2,1.1E1,1.88E2,5E1,2.92E2,1E1,1.35E2,1.57E2,1.3E2,2.7E1,9E1,4E1],"tree_param":{"num_deleted":"0","num_feature":"18","num_nodes":"25","size_leaf_vector":"1"}},{"base_weights":[-4.7010677E-3,-1.738307E-2,-0E0,-0E0,-2.6887076E-4,7.850701E-3,-0E0,2.1999955E-2,-0E0,-4.8440244E-5,-0E0,2.764156E-4,-0E0],"categories":[],"categories_nodes":[],"categories_segments":[],"categories_sizes":[],"default_left":[0,0,0,0,0,0,0,0,0,0,0,0,0],"id":33,"left_children":[1,3,5,-1,-1,7,9,11,-1,-1,-1,-1,-1],"loss_changes":[1.12969995E-1,1.2974663E-1,1.9291362E-2,0E0,0E0,8.718881E-2,3.2040705E-3,4.6003588E-2,0E0,0E0,0E0,0E0,0E0],"parents":[2147483647,0,0,1,1,2,2,5,5,6,6,7,7],"right_children":[2,4,6,-1,-1,8,10,12,-1,-1,-1,-1,-1],"split_conditions":[9.63E2,5.7E1,3.9E1,-0E0,-2.6887076E-4,1.284E3,5.7E1,1E0,-0E0,-4.8440244E-5,-0E0,2.764156E-4,-0E0],"split_indices":[5,5,1,0,0,5,1,17,0,0,0,0,0],"split_type":[0,0,0,0,0,0,0,0,0,0,0,0,0],"sum_hessian":[9.18E2,4.41E2,4.77E2,6E1,3.81E2,3.13E2,1.64E2,2.2E2,9.3E1,1.43E2,2.1E1,2.09E2,1.1E1],"tree_param":{"num_deleted":"0","num_feature":"18","num_nodes":"13","size_leaf_vector":"1"}},{"base_weights":[-0E0,-2.3595062E-3,1.999439E-3,-1.4307367E-2,-0E0,-0E0,-2.3550434E-2,3.1491168E-2,-0E0,-0E0,-3.0116262E-4,-0E0,4.645483E-2,-0E0,5.8359746E-2,7.388776E-2,-0E0,-0E0,9.528063E-4],"categories":[],"categories_nodes":[],"categories_segments":[],"categories_sizes":[],"default_left":[0,0,0,0,0,0,0,0,0,0,0,0,0,0,0,0,0,0,0],"id":34,"left_children":[1,3,-1,5,7,-1,9,11,-1,-1,-1,-1,13,-1,15,17,-1,-1,-1],"loss_changes":[8.829171E-1,1.083284E-1,0E0,1.8075112E-1,1.5966393E-1,0E0,1.2003043E-1,1.2304346E-1,0E0,0E0,0E0,0E0,1.2259418E-1,0E0,6.421366E-2,1.8932405E-1,0E0,0E0,0E0],"parents":[2147483647,0,0,1,1,3,3,4,4,6,6,7,7,12,12,14,14,15,15],"right_children":[2,4,-1,6,8,-1,10,12,-1,-1,-1,-1,14,-1,16,18,-1,-1,-1],"split_conditions":[1E0,1.086E3,1.999439E-3,3.996E3,1.263E3,-0E0,7.20321E-1,7.73875E-1,-0E0,-0E0,-3.0116262E-4,-0E0,5.385E3,-0E0,6.629E3,8.09591E-1,-0E0,-0E0,9.528063E-4],"split_indices":[12,5,0,7,5,0,6,6,0,0,0,0,7,0,7,6,0,0,0],"split_type":[0,0,0,0,0,0,0,0,0,0,0,0,0,0,0,0,0,0,0],"sum_hessian":[8.98E2,8.75E2,2.3E1,5.53E2,3.22E2,2.3E1,5.3E2,1.61E2,1.61E2,5.2E1,4.78E2,3E1,1.31E2,1.2E1,1.19E2,8.6E1,3.3E1,1E1,7.6E1],"tree_param":{"num_deleted":"0","num_feature":"18","num_nodes":"19","size_leaf_vector":"1"}},{"base_weights":[1.0396941E-3,-0E0,3.5705957E-1,-1.485177E-2,5.4047015E-3,-0E0,8.012514E-3,-0E0,-2.3386216E-2,6.7752264E-2,-0E0,-0E0,-2.6923828E-4,-0E0,9.1375664E-2,1.1850586E-1,-0E0,-0E0,1.5999798E-3],"categories":[],"categories_nodes":[],"categories_segments":[],"categories_sizes":[],"default_left":[0,0,0,0,0,0,0,0,0,0,0,0,0,0,0,0,0,0,0],"id":35,"left_children":[1,3,5,7,9,-1,-1,-1,11,13,-1,-1,-1,-1,15,17,-1,-1,-1],"loss_changes":[2.931452E0,1.416797E-1,4.4247475E0,1.8409865E-1,6.886281E-1,0E0,0E0,0E0,4.327336E-2,3.877051E-1,0E0,0E0,0E0,0E0,3.4702146E-1,3.275553E-1,0E0,0E0,0E0],"parents":[2147483647,0,0,1,1,2,2,3,3,4,4,8,8,9,9,14,14,15,15],"right_children":[2,4,6,8,10,-1,-1,-1,12,14,-1,-1,-1,-1,16,18,-1,-1,-1],"split_conditions":[1E0,1.119E3,2.770966E0,3.996E3,1.281E3,-0E0,8.012514E-3,-0E0,7.228E-1,5.393E3,-0E0,-0E0,-2.6923828E-4,-0E0,2.837853E0,8.22983E-1,-0E0,-0E0,1.5999798E-3],"split_indices":[12,5,8,7,5,0,0,0,6,7,0,0,0,0,8,6,0,0,0],"split_type":[0,0,0,0,0,0,0,0,0,0,0,0,0,0,0,0,0,0,0],"sum_hessian":[9.36E2,9.13E2,2.3E1,6.01E2,3.12E2,1.1E1,1.2E1,2.2E1,5.79E2,1.52E2,1.6E2,5.9E1,5.2E2,2.2E1,1.3E2,1.02E2,2.8E1,3E1,7.2E1],"tree_param":{"num_deleted":"0","num_feature":"18","num_nodes":"19","size_leaf_vector":"1"}},{"base_weights":[-0E0,-0E0,1.6986291E-1,-6.799553E-3,-0E0,4.4867154E-3,-0E0,-0E0,-1.199669E-4,9.155307E-3,-0E0,-0E0,1.8272884E-4],"categories":[],"categories_nodes":[],"categories_segments":[],"categories_sizes":[],"default_left":[0,0,0,0,0,0,0,0,0,0,0,0,0],"id":36,"left_children":[1,3,5,7,9,-1,-1,-1,-1,11,-1,-1,-1],"loss_changes":[6.059573E-1,2.3764294E-2,1.5087404E0,3.5466958E-2,2.2631409E-2,0E0,0E0,0E0,0E0,2.041149E-2,0E0,0E0,0E0],"parents":[2147483647,0,0,1,1,2,2,3,3,4,4,9,9],"right_children":[2,4,6,8,10,-1,-1,-1,-1,12,-1,-1,-1],"split_conditions":[1E0,3.6E1,2.4E1,6E0,5.4E1,4.4867154E-3,-0E0,-0E0,-1.199669E-4,4.5E1,-0E0,-0E0,1.8272884E-4],"split_indices":[12,1,1,1,1,0,0,0,0,1,0,0,0],"split_type":[0,0,0,0,0,0,0,0,0,0,0,0,0],"sum_hessian":[8.92E2,8.71E2,2.1E1,5.14E2,3.57E2,1.1E1,1E1,8.3E1,4.31E2,2.7E2,8.7E1,1.35E2,1.35E2],"tree_param":{"num_deleted":"0","num_feature":"18","num_nodes":"13","size_leaf_vector":"1"}},{"base_weights":[-0E0,-6.815113E-3,3.7348783E-1,-2.2546275E-2,-0E0,-0E0,7.90757E-3,-0E0,-2.7600458E-2,-0E0,2.1143073E-2,-0E0,-2.956838E-4,7.7416435E-2,-0E0,-0E0,1.1981669E-1,1.5311162E-1,-0E0,1.9113112E-3,-0E0],"categories":[],"categories_nodes":[],"categories_segments":[],"categories_sizes":[],"default_left":[0,0,0,0,0,0,0,0,0,0,0,0,0,0,0,0,0,0,0,0,0],"id":37,"left_children":[1,3,5,7,9,-1,-1,-1,11,-1,13,-1,-1,15,-1,-1,17,19,-1,-1,-1],"loss_changes":[3.389485E0,2.2235009E-1,3.8177454E0,1.04116976E-1,8.180696E-2,0E0,0E0,0E0,2.7279258E-3,0E0,5.774639E-1,0E0,0E0,5.6101024E-1,0E0,0E0,4.6765614E-1,9.113288E-2,0E0,0E0,0E0],"parents":[2147483647,0,0,1,1,2,2,3,3,4,4,8,8,10,10,13,13,16,16,17,17],"right_children":[2,4,6,8,10,-1,-1,-1,12,-1,14,-1,-1,16,-1,-1,18,20,-1,-1,-1],"split_conditions":[1E0,3.6E1,2.770966E0,7.228E-1,8.3004E-1,-0E0,7.90757E-3,-0E0,3E0,-0E0,2.923399E0,-0E0,-2.956838E-4,2.582862E0,-0E0,-0E0,9.33769E-1,5.4E1,-0E0,1.9113112E-3,-0E0],"split_indices":[12,1,8,6,6,0,0,0,1,0,8,0,0,8,0,0,6,1,0,0,0],"split_type":[0,0,0,0,0,0,0,0,0,0,0,0,0,0,0,0,0,0,0,0,0],"sum_hessian":[9.17E2,8.93E2,2.4E1,5.19E2,3.74E2,1.2E1,1.2E1,3.6E1,4.83E2,1.91E2,1.83E2,3.9E1,4.44E2,1.1E2,7.3E1,2.5E1,8.5E1,7.2E1,1.3E1,5.1E1,2.1E1],"tree_param":{"num_deleted":"0","num_feature":"18","num_nodes":"21","size_leaf_vector":"1"}},{"base_weights":[-0E0,-1.7562866E-2,3.5947204E-2,-2.6695363E-4,-0E0,6.945555E-2,-0E0,3.2161234E-3,4.0485403E-1,2.5590746E-2,-0E0,6.810641E-3,-0E0,-0E0,4.2733908E-2,5.0801035E-2,-0E0,-0E0,5.9910666E-2,-0E0,7.228469E-2,9.462778E-4,-0E0],"categories":[],"categories_nodes":[],"categories_segments":[],"categories_sizes":[],"default_left":[0,0,0,0,0,0,0,0,0,0,0,0,0,0,0,0,0,0,0,0,0,0,0],"id":38,"left_children":[1,3,5,-1,-1,7,-1,9,11,13,-1,-1,-1,-1,15,17,-1,-1,19,-1,21,-1,-1],"loss_changes":[7.4484885E-1,1.2522584E-1,1.0293229E0,0E0,0E0,3.6130285E0,0E0,1.284575E-1,7.037258E-2,1.4412355E-1,0E0,0E0,0E0,0E0,8.8131756E-2,1.0631293E-1,0E0,0E0,4.1862845E-2,0E0,2.2328174E-1,0E0,0E0],"parents":[2147483647,0,0,1,1,2,2,5,5,7,7,8,8,9,9,14,14,15,15,18,18,20,20],"right_children":[2,4,6,-1,-1,8,-1,10,12,14,-1,-1,-1,-1,16,18,-1,-1,20,-1,22,-1,-1],"split_conditions":[1.6E1,6E0,8.86618E-1,-2.6695363E-4,-0E0,8.81903E-1,-0E0,8.32129E-1,2.849181E0,7.18819E-1,-0E0,6.810641E-3,-0E0,-0E0,5.4E1,3E0,-0E0,-0E0,2.63512E0,-0E0,1.9E1,9.462778E-4,-0E0],"split_indices":[0,2,6,0,0,6,0,6,8,6,0,0,0,0,1,1,0,0,8,0,0,0,0],"split_type":[0,0,0,0,0,0,0,0,0,0,0,0,0,0,0,0,0,0,0,0,0,0,0],"sum_hessian":[9.19E2,4.5E2,4.69E2,3.88E2,6.2E1,3.39E2,1.3E2,3.07E2,3.2E1,2.01E2,1.06E2,1.2E1,2E1,5E1,1.51E2,1.41E2,1E1,1E1,1.31E2,3.3E1,9.8E1,8.6E1,1.2E1],"tree_param":{"num_deleted":"0","num_feature":"18","num_nodes":"23","size_leaf_vector":"1"}},{"base_weights":[-8.886099E-3,-0E0,-1.3889649E-2,-0E0,-1.9516714E-2,-2.2615428E-4,-0E0],"categories":[],"categories_nodes":[],"categories_segments":[],"categories_sizes":[],"default_left":[0,0,0,0,0,0,0],"id":39,"left_children":[1,-1,3,-1,5,-1,-1],"loss_changes":[7.3162384E-2,0E0,1.1970398E-1,0E0,6.8143815E-2,0E0,0E0],"parents":[2147483647,0,0,2,2,4,4],"right_children":[2,-1,4,-1,6,-1,-1],"split_conditions":[9E0,-0E0,5.7E1,-0E0,1E0,-2.2615428E-4,-0E0],"split_indices":[1,0,5,0,12,0,0],"split_type":[0,0,0,0,0,0,0],"sum_hessian":[8.57E2,1.27E2,7.3E2,4.6E1,6.84E2,6.73E2,1.1E1],"tree_param":{"num_deleted":"0","num_feature":"18","num_nodes":"7","size_leaf_vector":"1"}},{"base_weights":[-0E0,-1.566226E-2,2.05115E-2,-0E0,-2.304231E-2,1.662304E-1,-0E0,-0E0,-2.9362222E-2,-0E0,3.4131524E-1,-3.2447465E-4,-0E0,5.3118835E-3,-0E0],"categories":[],"categories_nodes":[],"categories_segments":[],"categories_sizes":[],"default_left":[0,0,0,0,0,0,0,0,0,0,0,0,0,0,0],"id":40,"left_children":[1,3,5,-1,7,9,-1,-1,11,-1,13,-1,-1,-1,-1],"loss_changes":[2.5333533E-1,1.9039243E-1,1.244776E0,0E0,1.1207089E-1,1.9356387E0,0E0,0E0,2.4469644E-2,0E0,1.5880468E0,0E0,0E0,0E0,0E0],"parents":[2147483647,0,0,1,1,2,2,4,4,5,5,8,8,10,10],"right_children":[2,4,6,-1,8,10,-1,-1,12,-1,14,-1,-1,-1,-1],"split_conditions":[1.236E3,3.996E3,1.284E3,-0E0,1.2E1,1.8E1,-0E0,-0E0,1.173E3,-0E0,4.8E1,-3.2447465E-4,-0E0,5.3118835E-3,-0E0],"split_indices":[5,7,5,0,1,1,0,0,5,0,1,0,0,0,0],"split_type":[0,0,0,0,0,0,0,0,0,0,0,0,0,0,0],"sum_hessian":[8.94E2,7E2,1.94E2,1.8E1,6.82E2,4.8E1,1.46E2,1.32E2,5.5E2,2E1,2.8E1,4.96E2,5.4E1,1.8E1,1E1],"tree_param":{"num_deleted":"0","num_feature":"18","num_nodes":"15","size_leaf_vector":"1"}},{"base_weights":[-0E0,-0E0,3.270671E-3,-1.5461033E-2,-0E0,-2.9149232E-4,-0E0,4.927941E-2,-0E0,-0E0,1.9625281E-1,-5.041279E-5,-0E0,2.9594265E-3,-0E0],"categories":[],"categories_nodes":[],"categories_segments":[],"categories_sizes":[],"default_left":[0,0,0,0,0,0,0,0,0,0,0,0,0,0,0],"id":41,"left_children":[1,3,-1,5,7,-1,-1,9,11,-1,13,-1,-1,-1,-1],"loss_changes":[1.8387632E0,1.24542005E-1,0E0,2.1459982E-1,4.516966E-1,0E0,0E0,3.5716966E-1,3.737277E-3,0E0,1.1117303E-1,0E0,0E0,0E0,0E0],"parents":[2147483647,0,0,1,1,3,3,4,4,7,7,8,8,10,10],"right_children":[2,4,-1,6,8,-1,-1,10,12,-1,14,-1,-1,-1,-1],"split_conditions":[1E0,1.05E3,3.270671E-3,4.8E1,1.263E3,-2.9149232E-4,-0E0,8.7762E-1,5.4E1,-0E0,8.84224E-1,-5.041279E-5,-0E0,2.9594265E-3,-0E0],"split_indices":[12,5,0,1,5,0,0,6,1,0,6,0,0,0,0],"split_type":[0,0,0,0,0,0,0,0,0,0,0,0,0,0,0],"sum_hessian":[8.97E2,8.79E2,1.8E1,5.21E2,3.58E2,4.18E2,1.03E2,1.86E2,1.72E2,1.65E2,2.1E1,1.54E2,1.8E1,1.1E1,1E1],"tree_param":{"num_deleted":"0","num_feature":"18","num_nodes":"15","size_leaf_vector":"1"}},{"base_weights":[-0E0,-3.1965965E-4,2.942439E-3,-2.1517573E-2,2.4391143E-3,-0E0,-3.2786446E-4,5.357358E-2,-9.550565E-5,8.779187E-2,-0E0,-0E0,1.3293374E-1,1.5459729E-3,-0E0],"categories":[],"categories_nodes":[],"categories_segments":[],"categories_sizes":[],"default_left":[0,0,0,0,0,0,0,0,0,0,0,0,0,0,0],"id":42,"left_children":[1,3,-1,5,7,-1,-1,9,-1,11,-1,-1,13,-1,-1],"loss_changes":[1.5709841E0,2.3559614E-1,0E0,2.603686E-1,6.6077876E-1,0E0,0E0,7.1556914E-1,0E0,7.210225E-1,0E0,0E0,2.8826976E-1,0E0,0E0],"parents":[2147483647,0,0,1,1,3,3,4,4,7,7,9,9,12,12],"right_children":[2,4,-1,6,8,-1,-1,10,-1,12,-1,-1,14,-1,-1],"split_conditions":[2E0,1.023E3,2.942439E-3,3.996E3,1.263E3,-0E0,-3.2786446E-4,2.837853E0,-9.550565E-5,2.582862E0,-0E0,-0E0,5.4E1,1.5459729E-3,-0E0],"split_indices":[12,5,0,7,5,0,0,8,0,8,0,0,1,0,0],"split_type":[0,0,0,0,0,0,0,0,0,0,0,0,0,0,0],"sum_hessian":[9.15E2,8.96E2,1.9E1,5.04E2,3.92E2,2.3E1,4.81E2,2.26E2,1.66E2,1.77E2,4.9E1,5.9E1,1.18E2,1.04E2,1.4E1],"tree_param":{"num_deleted":"0","num_feature":"18","num_nodes":"15","size_leaf_vector":"1"}},{"base_weights":[-0E0,-6.693697E-3,4.261457E-1,-0E0,-1.9087086E-2,-0E0,7.2004558E-3,2.1866117E-2,-0E0,-2.059151E-2,-0E0,-0E0,1.1970745E-1,-2.1905886E-4,-0E0,3.7007562E-3,-0E0],"categories":[],"categories_nodes":[],"categories_segments":[],"categories_sizes":[],"default_left":[0,0,0,0,0,0,0,0,0,0,0,0,0,0,0,0,0],"id":43,"left_children":[1,3,5,7,9,-1,-1,11,-1,13,-1,-1,15,-1,-1,-1,-1],"loss_changes":[4.579524E0,2.0734838E-1,2.3914118E0,5.546333E-2,1.9212052E-2,0E0,0E0,5.750689E-1,0E0,1.594907E-2,0E0,0E0,1.8543885E0,0E0,0E0,0E0,0E0],"parents":[2147483647,0,0,1,1,2,2,3,3,4,4,7,7,9,9,12,12],"right_children":[2,4,6,8,10,-1,-1,12,-1,14,-1,-1,16,-1,-1,-1,-1],"split_conditions":[1E0,3E0,2.732359E0,1.2408E4,3.28003E0,-0E0,7.2004558E-3,5.867E3,-0E0,1.4324E4,-0E0,-0E0,2.638552E0,-2.1905886E-4,-0E0,3.7007562E-3,-0E0],"split_indices":[12,2,8,7,8,0,0,7,0,7,0,0,8,0,0,0,0],"split_type":[0,0,0,0,0,0,0,0,0,0,0,0,0,0,0,0,0],"sum_hessian":[9.02E2,8.77E2,2.5E1,2E2,6.77E2,1.1E1,1.4E1,1.16E2,8.4E1,6.27E2,5E1,7.2E1,4.4E1,6.15E2,1.2E1,1.9E1,2.5E1],"tree_param":{"num_deleted":"0","num_feature":"18","num_nodes":"17","size_leaf_vector":"1"}},{"base_weights":[-0E0,-1.0044086E-2,1.822057E-2,-0E0,-1.8632674E-4,4.1723985E-2,-0E0,-0E0,9.0986036E-2,-0E0,1.475771E-1,2.209769E-1,-0E0,-0E0,7.165225E-3],"categories":[],"categories_nodes":[],"categories_segments":[],"categories_sizes":[],"default_left":[0,0,0,0,0,0,0,0,0,0,0,0,0,0,0],"id":44,"left_children":[1,3,5,-1,-1,7,-1,-1,9,-1,11,13,-1,-1,-1],"loss_changes":[1.9052324E-1,8.020245E-2,4.5561087E-1,0E0,0E0,8.7950397E-1,0E0,0E0,1.0445371E0,0E0,6.4767075E-1,3.6899147E0,0E0,0E0,0E0],"parents":[2147483647,0,0,1,1,2,2,5,5,8,8,10,10,11,11],"right_children":[2,4,6,-1,-1,8,-1,-1,10,-1,12,14,-1,-1,-1],"split_conditions":[1.6E1,8E0,8.89838E-1,-0E0,-1.8632674E-4,8.09591E-1,-0E0,-0E0,2.61746E0,-0E0,2.854028E0,2.786706E0,-0E0,-0E0,7.165225E-3],"split_indices":[0,0,6,0,0,6,0,0,8,0,8,8,0,0,0],"split_type":[0,0,0,0,0,0,0,0,0,0,0,0,0,0,0],"sum_hessian":[8.76E2,4.34E2,4.42E2,6E1,3.74E2,3.46E2,9.6E1,1.67E2,1.79E2,6.3E1,1.16E2,6.5E1,5.1E1,5.1E1,1.4E1],"tree_param":{"num_deleted":"0","num_feature":"18","num_nodes":"15","size_leaf_vector":"1"}},{"base_weights":[-0E0,-6.723672E-3,1.1013335E-3,-1.8913936E-2,-0E0,-0E0,-2.1196237E-2,7.848712E-3,-1.13452625E-8,-2.3503962E-4,-0E0,-0E0,2.156142E-2,4.7450308E-2,-0E0,6.119942E-2,-0E0,7.359816E-4,-0E0],"categories":[],"categories_nodes":[],"categories_segments":[],"categories_sizes":[],"default_left":[0,0,0,0,0,0,0,0,0,0,0,0,0,0,0,0,0,0,0],"id":45,"left_children":[1,3,-1,5,7,-1,9,11,-1,-1,-1,-1,13,15,-1,17,-1,-1,-1],"loss_changes":[2.8288573E-1,1.1596874E-1,0E0,2.0819604E-3,1.829595E-2,0E0,2.1656483E-2,7.8867644E-2,0E0,0E0,0E0,0E0,1.7527455E-1,1.3206631E-1,0E0,7.652566E-2,0E0,0E0,0E0],"parents":[2147483647,0,0,1,1,3,3,4,4,6,6,7,7,12,12,13,13,15,15],"right_children":[2,4,-1,6,8,-1,10,12,-1,-1,-1,-1,14,16,-1,18,-1,-1,-1],"split_conditions":[1E0,9.63E2,1.1013335E-3,2.36411E0,1.281E3,-0E0,1.3722E4,2.61746E0,-1.13452625E-8,-2.3503962E-4,-0E0,-0E0,2.837853E0,1.32E4,-0E0,5.4E1,-0E0,7.359816E-4,-0E0],"split_indices":[12,5,0,8,5,0,7,8,0,0,0,0,8,7,0,1,0,0,0],"split_type":[0,0,0,0,0,0,0,0,0,0,0,0,0,0,0,0,0,0,0],"sum_hessian":[8.98E2,8.77E2,2.1E1,4.35E2,4.42E2,8.4E1,3.51E2,2.97E2,1.45E2,3.4E2,1.1E1,8.8E1,2.09E2,1.21E2,8.8E1,1.08E2,1.3E1,9.3E1,1.5E1],"tree_param":{"num_deleted":"0","num_feature":"18","num_nodes":"19","size_leaf_vector":"1"}},{"base_weights":[2.320859E-3,-1.0499569E-2,3.4038354E-2,-2.6352683E-4,-0E0,6.2330496E-2,-0E0,-0E0,2.8778544E-1,8.145593E-3,-0E0,3.217254E-1,-0E0,-0E0,4.5650153E-4,4.772332E-3,-0E0],"categories":[],"categories_nodes":[],"categories_segments":[],"categories_sizes":[],"default_left":[0,0,0,0,0,0,0,0,0,0,0,0,0,0,0,0,0],"id":46,"left_children":[1,3,5,-1,-1,7,-1,9,11,13,-1,15,-1,-1,-1,-1,-1],"loss_changes":[6.0094273E-1,1.8082769E-1,8.996211E-1,0E0,0E0,3.3467753E0,0E0,1.3801026E-2,1.6478634E-1,1.2549533E-1,0E0,1.1211157E0,0E0,0E0,0E0,0E0,0E0],"parents":[2147483647,0,0,1,1,2,2,5,5,7,7,8,8,9,9,11,11],"right_children":[2,4,6,-1,-1,8,-1,10,12,14,-1,16,-1,-1,-1,-1,-1],"split_conditions":[1.6E1,4.8E1,8.89838E-1,-2.6352683E-4,-0E0,8.81903E-1,-0E0,8.32129E-1,4.8E1,7.73875E-1,-0E0,2.2E1,-0E0,-0E0,4.5650153E-4,4.772332E-3,-0E0],"split_indices":[0,1,6,0,0,6,0,6,1,6,0,0,0,0,0,0,0],"split_type":[0,0,0,0,0,0,0,0,0,0,0,0,0,0,0,0,0],"sum_hessian":[9.22E2,4.41E2,4.81E2,3.46E2,9.5E1,3.75E2,1.06E2,3.17E2,5.8E1,2.08E2,1.09E2,4.8E1,1E1,1.38E2,7E1,2.8E1,2E1],"tree_param":{"num_deleted":"0","num_feature":"18","num_nodes":"17","size_leaf_vector":"1"}},{"base_weights":[-1.234703E-2,-1.906173E-2,-0E0,-1.996734E-2,-0E0,-0E0,-2.1851287E-4],"categories":[],"categories_nodes":[],"categories_segments":[],"categories_sizes":[],"default_left":[0,0,0,0,0,0,0],"id":47,"left_children":[1,3,-1,5,-1,-1,-1],"loss_changes":[1.8662181E-1,1.0901839E-2,0E0,9.499639E-3,0E0,0E0,0E0],"parents":[2147483647,0,0,1,1,3,3],"right_children":[2,4,-1,6,-1,-1,-1],"split_conditions":[2E0,5.7E1,-0E0,6E0,-0E0,-0E0,-2.1851287E-4],"split_indices":[12,1,0,1,0,0,0],"split_type":[0,0,0,0,0,0,0],"sum_hessian":[9.09E2,8.95E2,1.4E1,8.43E2,5.2E1,8.5E1,7.58E2],"tree_param":{"num_deleted":"0","num_feature":"18","num_nodes":"7","size_leaf_vector":"1"}},{"base_weights":[-0E0,-3.8528591E-3,4.4371486E-3,-2.35715E-2,8.7157235E-4,-2.7393768E-4,-0E0,2.5030203E-2,-0E0,-0E0,5.119178E-2,7.398995E-4,-0E0],"categories":[],"categories_nodes":[],"categories_segments":[],"categories_sizes":[],"default_left":[0,0,0,0,0,0,0,0,0,0,0,0,0],"id":48,"left_children":[1,3,-1,5,7,-1,-1,9,-1,-1,11,-1,-1],"loss_changes":[3.5851452E0,2.9902107E-1,0E0,6.449425E-2,1.3947803E-1,0E0,0E0,2.1669188E-1,0E0,0E0,1.3498801E-1,0E0,0E0],"parents":[2147483647,0,0,1,1,3,3,4,4,7,7,10,10],"right_children":[2,4,-1,6,8,-1,-1,10,-1,-1,12,-1,-1],"split_conditions":[1E0,3.9E1,4.4371486E-3,3.28003E0,2.923399E0,-2.7393768E-4,-0E0,2.582862E0,-0E0,-0E0,5.4E1,7.398995E-4,-0E0],"split_indices":[12,1,0,8,8,0,0,8,0,0,1,0,0],"split_type":[0,0,0,0,0,0,0,0,0,0,0,0,0],"sum_hessian":[8.89E2,8.7E2,1.9E1,5.61E2,3.09E2,5.25E2,3.6E1,2.23E2,8.6E1,8.7E1,1.36E2,9.4E1,4.2E1],"tree_param":{"num_deleted":"0","num_feature":"18","num_nodes":"13","size_leaf_vector":"1"}},{"base_weights":[-0E0,-7.088635E-3,4.7509028E-3,-2.2938509E-2,-0E0,-0E0,-2.4472278E-2,2.6023556E-2,-0E0,-2.6837672E-4,-0E0,-0E0,5.2005388E-2,6.697739E-4,-0E0],"categories":[],"categories_nodes":[],"categories_segments":[],"categories_sizes":[],"default_left":[0,0,0,0,0,0,0,0,0,0,0,0,0,0,0],"id":49,"left_children":[1,3,-1,5,7,-1,9,11,-1,-1,-1,-1,13,-1,-1],"loss_changes":[5.0029163E0,2.4808097E-1,0E0,8.834988E-3,1.1851529E-1,0E0,2.6310533E-2,2.5201285E-1,0E0,0E0,0E0,0E0,1.6920713E-1,0E0,0E0],"parents":[2147483647,0,0,1,1,3,3,4,4,6,6,7,7,12,12],"right_children":[2,4,-1,6,8,-1,10,12,-1,-1,-1,-1,14,-1,-1],"split_conditions":[1E0,1.8E1,4.7509028E-3,7.20321E-1,2.1E1,-0E0,1.7E1,7.74271E-1,-0E0,-2.6837672E-4,-0E0,-0E0,8.84224E-1,6.697739E-4,-0E0],"split_indices":[12,0,0,6,0,0,0,6,0,0,0,0,6,0,0],"split_type":[0,0,0,0,0,0,0,0,0,0,0,0,0,0,0],"sum_hessian":[9.29E2,9.06E2,2.3E1,5.58E2,3.48E2,5.3E1,5.05E2,1.75E2,1.73E2,4.78E2,2.7E1,3.8E1,1.37E2,1.26E2,1.1E1],"tree_param":{"num_deleted":"0","num_feature":"18","num_nodes":"15","size_leaf_vector":"1"}},{"base_weights":[3.6064205E-3,-0E0,5.986954E-3,-1.6715406E-2,7.653009E-4,-3.241581E-4,-0E0,-0E0,2.6328877E-2,4.848512E-2,-0E0,-0E0,9.3911044E-2,1.06045224E-1,-0E0,1.266636E-1,-0E0,-0E0,1.5256399E-3],"categories":[],"categories_nodes":[],"categories_segments":[],"categories_sizes":[],"default_left":[0,0,0,0,0,0,0,0,0,0,0,0,0,0,0,0,0,0,0],"id":50,"left_children":[1,3,-1,5,7,-1,-1,-1,9,11,-1,-1,13,15,-1,17,-1,-1,-1],"loss_changes":[6.491674E0,1.3658297E-1,0E0,2.5396436E-1,2.0079859E-1,0E0,0E0,0E0,3.4906006E-1,7.6399267E-1,0E0,0E0,2.4906647E-1,2.0167232E-1,0E0,2.3550916E-1,0E0,0E0,0E0],"parents":[2147483647,0,0,1,1,3,3,4,4,8,8,9,9,12,12,13,13,15,15],"right_children":[2,4,-1,6,8,-1,-1,-1,10,12,-1,-1,14,16,-1,18,-1,-1,-1],"split_conditions":[1E0,1.7E1,5.986954E-3,4.8E1,5.393E3,-3.241581E-4,-0E0,-0E0,8.89838E-1,7.74271E-1,-0E0,-0E0,1E0,6.629E3,-0E0,8.09591E-1,-0E0,-0E0,1.5256399E-3],"split_indices":[12,0,0,1,7,0,0,0,6,6,0,0,14,7,0,6,0,0,0],"split_type":[0,0,0,0,0,0,0,0,0,0,0,0,0,0,0,0,0,0,0],"sum_hessian":[9.05E2,8.86E2,1.9E1,4.88E2,3.98E2,3.89E2,9.9E1,1.08E2,2.9E2,2.34E2,5.6E1,8.5E1,1.49E2,1.39E2,1E1,1.1E2,2.9E1,2E1,9E1],"tree_param":{"num_deleted":"0","num_feature":"18","num_nodes":"19","size_leaf_vector":"1"}},{"base_weights":[-0E0,-6.856256E-3,5.7953317E-3,-2.1121373E-4,-0E0,2.963972E-2,-0E0,-0E0,2.2144504E-1,7.1361125E-3,-0E0,-0E0,3.710773E-3,2.028095E-2,-0E0,-0E0,3.1498514E-2,-0E0,4.5446717E-4],"categories":[],"categories_nodes":[],"categories_segments":[],"categories_sizes":[],"default_left":[0,0,0,0,0,0,0,0,0,0,0,0,0,0,0,0,0,0,0],"id":51,"left_children":[1,3,5,-1,-1,7,-1,9,11,13,-1,-1,-1,15,-1,-1,17,-1,-1],"loss_changes":[3.648233E-2,1.3191915E-1,2.8101346E-1,0E0,0E0,1.2241759E0,0E0,9.930263E-3,1.2411264E0,5.7937544E-2,0E0,0E0,0E0,7.798042E-2,0E0,0E0,7.504246E-2,0E0,0E0],"parents":[2147483647,0,0,1,1,2,2,5,5,7,7,8,8,9,9,13,13,16,16],"right_children":[2,4,6,-1,-1,8,-1,10,12,14,-1,-1,-1,16,-1,-1,18,-1,-1],"split_conditions":[1.6E1,4.8E1,8.86618E-1,-2.1121373E-4,-0E0,8.81903E-1,-0E0,8.32129E-1,5.393E3,1.32E4,-0E0,-0E0,3.710773E-3,6E0,-0E0,-0E0,7.21489E-1,-0E0,4.5446717E-4],"split_indices":[0,1,6,0,0,6,0,6,7,7,0,0,0,1,0,0,6,0,0],"split_type":[0,0,0,0,0,0,0,0,0,0,0,0,0,0,0,0,0,0,0],"sum_hessian":[9.04E2,4.56E2,4.48E2,3.6E2,9.6E1,3.37E2,1.11E2,3.06E2,3.1E1,1.95E2,1.11E2,1E1,2.1E1,1.65E2,3E1,1.8E1,1.47E2,3.5E1,1.12E2],"tree_param":{"num_deleted":"0","num_feature":"18","num_nodes":"19","size_leaf_vector":"1"}},{"base_weights":[-0E0,-9.521627E-3,2.0780038E-2,-2.4602411E-2,-0E0,6.052649E-2,-1.2913131E-5,-2.6546844E-4,-0E0,-0E0,2.2386315E-1,2.3123939E-2,-0E0,-0E0,3.3803108E-1,-0E0,4.3572225E-2,-0E0,4.8589422E-3,7.224191E-4,-0E0],"categories":[],"categories_nodes":[],"categories_segments":[],"categories_sizes":[],"default_left":[0,0,0,0,0,0,0,0,0,0,0,0,0,0,0,0,0,0,0,0,0],"id":52,"left_children":[1,3,5,7,-1,9,-1,-1,-1,11,13,15,-1,-1,17,-1,19,-1,-1,-1,-1],"loss_changes":[2.4190953E-1,1.7098923E-1,9.782125E-1,1.1500493E-2,0E0,1.7771927E0,0E0,0E0,0E0,3.7965536E-2,1.956707E0,5.6963757E-2,0E0,0E0,1.6245337E0,0E0,4.4612825E-2,0E0,0E0,0E0,0E0],"parents":[2147483647,0,0,1,1,2,2,3,3,5,5,9,9,10,10,11,11,14,14,16,16],"right_children":[2,4,6,8,-1,10,-1,-1,-1,12,14,16,-1,-1,18,-1,20,-1,-1,-1,-1],"split_conditions":[9.63E2,4.8E1,1.284E3,9.33E2,-0E0,1.224E3,-1.2913131E-5,-2.6546844E-4,-0E0,1.5E1,2.582862E0,2.61746E0,-0E0,-0E0,1.8E1,-0E0,1.092E3,-0E0,4.8589422E-3,7.224191E-4,-0E0],"split_indices":[5,1,5,5,0,5,0,0,0,1,8,8,0,0,1,0,5,0,0,0,0],"split_type":[0,0,0,0,0,0,0,0,0,0,0,0,0,0,0,0,0,0,0,0,0],"sum_hessian":[9.11E2,4.44E2,4.67E2,3.49E2,9.5E1,3.22E2,1.45E2,3.31E2,1.8E1,2.63E2,5.9E1,7.1E1,1.92E2,1.6E1,4.3E1,2.1E1,5E1,1.4E1,2.9E1,2.8E1,2.2E1],"tree_param":{"num_deleted":"0","num_feature":"18","num_nodes":"21","size_leaf_vector":"1"}},{"base_weights":[1.1617185E-3,-7.4385405E-3,2.9770806E-2,-0E0,-2.0171133E-4,-0E0,5.8934774E-2,9.534555E-2,-0E0,1.4219747E-1,-0E0,-0E0,1.9581686E-1,2.3088567E-3,-0E0],"categories":[],"categories_nodes":[],"categories_segments":[],"categories_sizes":[],"default_left":[0,0,0,0,0,0,0,0,0,0,0,0,0,0,0],"id":53,"left_children":[1,3,5,-1,-1,-1,7,9,-1,11,-1,-1,13,-1,-1],"loss_changes":[4.3366897E-1,1.3488865E-1,8.322037E-1,0E0,0E0,0E0,1.1201638E0,1.7208776E0,0E0,2.8680182E-1,0E0,0E0,9.2268467E-1,0E0,0E0],"parents":[2147483647,0,0,1,1,2,2,6,6,7,7,9,9,12,12],"right_children":[2,4,6,-1,-1,-1,8,10,-1,12,-1,-1,14,-1,-1],"split_conditions":[1.6E1,3.996E3,5.385E3,-0E0,-2.0171133E-4,-0E0,1.1442E4,8.89838E-1,-0E0,8.09591E-1,-0E0,-0E0,1E0,2.3088567E-3,-0E0],"split_indices":[0,7,7,0,0,0,7,6,0,6,0,0,13,0,0],"split_type":[0,0,0,0,0,0,0,0,0,0,0,0,0,0,0],"sum_hessian":[8.91E2,4.27E2,4.64E2,1.9E1,4.08E2,1.06E2,3.58E2,2.6E2,9.8E1,2.02E2,5.8E1,8.8E1,1.14E2,1.04E2,1E1],"tree_param":{"num_deleted":"0","num_feature":"18","num_nodes":"15","size_leaf_vector":"1"}},{"base_weights":[-0E0,-1.1038878E-2,4.321588E-1,-2.8591298E-2,-0E0,-0E0,9.37305E-3,-0E0,-3.2998502E-4,1.8893782E-2,-9.382138E-5,-0E0,3.3824373E-2,4.7425277E-4,-0E0],"categories":[],"categories_nodes":[],"categories_segments":[],"categories_sizes":[],"default_left":[0,0,0,0,0,0,0,0,0,0,0,0,0,0,0],"id":54,"left_children":[1,3,5,7,9,-1,-1,-1,-1,11,-1,-1,13,-1,-1],"loss_changes":[4.214873E0,2.5542563E-1,4.281087E0,8.682346E-2,1.0357584E-1,0E0,0E0,0E0,0E0,1.20839335E-1,0E0,0E0,1.3640939E-1,0E0,0E0],"parents":[2147483647,0,0,1,1,2,2,3,3,4,4,9,9,12,12],"right_children":[2,4,6,8,10,-1,-1,-1,-1,12,-1,-1,14,-1,-1],"split_conditions":[1E0,8.09591E-1,2.770966E0,7.07025E-1,2.923399E0,-0E0,9.37305E-3,-0E0,-3.2998502E-4,2.582862E0,-9.382138E-5,-0E0,9.33769E-1,4.7425277E-4,-0E0],"split_indices":[12,6,8,6,8,0,0,0,0,8,0,0,6,0,0],"split_type":[0,0,0,0,0,0,0,0,0,0,0,0,0,0,0],"sum_hessian":[8.91E2,8.69E2,2.2E1,4.42E2,4.27E2,1.2E1,1E1,1.1E1,4.31E2,2.48E2,1.79E2,6.5E1,1.83E2,1.61E2,2.2E1],"tree_param":{"num_deleted":"0","num_feature":"18","num_nodes":"15","size_leaf_vector":"1"}},{"base_weights":[-0E0,-5.1877457E-3,1.0007334E-2,-1.9680744E-4,-0E0,3.4156285E-2,-0E0,-0E0,2.3861352E-1,3.7940204E-4,-0E0,4.1915984E-3,-0E0],"categories":[],"categories_nodes":[],"categories_segments":[],"categories_sizes":[],"default_left":[0,0,0,0,0,0,0,0,0,0,0,0,0],"id":55,"left_children":[1,3,5,-1,-1,7,-1,9,11,-1,-1,-1,-1],"loss_changes":[5.725764E-2,1.2021738E-1,2.932643E-1,0E0,0E0,1.3128963E0,0E0,8.384701E-2,1.2010359E0,0E0,0E0,0E0,0E0],"parents":[2147483647,0,0,1,1,2,2,5,5,7,7,8,8],"right_children":[2,4,6,-1,-1,8,-1,10,12,-1,-1,-1,-1],"split_conditions":[9.66E2,4.8E1,1.263E3,-1.9680744E-4,-0E0,1.236E3,-0E0,1.5E1,4.8E1,3.7940204E-4,-0E0,4.1915984E-3,-0E0],"split_indices":[5,1,5,0,0,5,0,1,1,0,0,0,0],"split_type":[0,0,0,0,0,0,0,0,0,0,0,0,0],"sum_hessian":[9.03E2,4.53E2,4.5E2,3.58E2,9.5E1,2.9E2,1.6E2,2.61E2,2.9E1,6.1E1,2E2,1.7E1,1.2E1],"tree_param":{"num_deleted":"0","num_feature":"18","num_nodes":"13","size_leaf_vector":"1"}},{"base_weights":[-0E0,-8.622219E-3,1.345687E-3,-1.8454459E-2,-0E0,-0E0,-2.5849402E-4,2.1518352E-2,-0E0,4.389715E-2,-0E0,5.6408465E-2,-0E0,-0E0,1.1876022E-3],"categories":[],"categories_nodes":[],"categories_segments":[],"categories_sizes":[],"default_left":[0,0,0,0,0,0,0,0,0,0,0,0,0,0,0],"id":56,"left_children":[1,3,-1,5,7,-1,-1,9,-1,11,-1,13,-1,-1,-1],"loss_changes":[3.5947633E-1,1.5076452E-1,0E0,1.5571992E-1,2.8709022E-2,0E0,0E0,6.9568306E-2,0E0,2.5821306E-2,0E0,1.1833561E-1,0E0,0E0,0E0],"parents":[2147483647,0,0,1,1,3,3,4,4,7,7,9,9,11,11],"right_children":[2,4,-1,6,8,-1,-1,10,-1,12,-1,14,-1,-1,-1],"split_conditions":[2E0,2E1,1.345687E-3,8E0,2.1E1,-0E0,-2.5849402E-4,4.8E1,-0E0,1E0,-0E0,2.4E1,-0E0,-0E0,1.1876022E-3],"split_indices":[12,0,0,0,0,0,0,1,0,3,0,1,0,0,0],"split_type":[0,0,0,0,0,0,0,0,0,0,0,0,0,0,0],"sum_hessian":[8.98E2,8.81E2,1.7E1,6.35E2,2.46E2,5.2E1,5.83E2,6.2E1,1.84E2,5.1E1,1.1E1,3.9E1,1.2E1,2.1E1,1.8E1],"tree_param":{"num_deleted":"0","num_feature":"18","num_nodes":"15","size_leaf_vector":"1"}},{"base_weights":[-0E0,-9.6237555E-4,2.3514824E-3,-0E0,-1.0822341E-2,-0E0,5.5178646E-2,-0E0,-1.8648047E-2,1.9099218E-1,-0E0,-0E0,-2.9109663E-4,-0E0,3.270724E-1,-0E0,4.6804226E-3],"categories":[],"categories_nodes":[],"categories_segments":[],"categories_sizes":[],"default_left":[0,0,0,0,0,0,0,0,0,0,0,0,0,0,0,0,0],"id":57,"left_children":[1,3,-1,5,7,-1,9,-1,11,13,-1,-1,-1,-1,15,-1,-1],"loss_changes":[1.2152799E0,7.55475E-2,0E0,2.618465E-1,1.4306611E-1,0E0,1.2337971E0,0E0,1.3659228E-1,1.3928511E0,0E0,0E0,0E0,0E0,6.6782117E-1,0E0,0E0],"parents":[2147483647,0,0,1,1,3,3,4,4,6,6,8,8,9,9,14,14],"right_children":[2,4,-1,6,8,-1,10,-1,12,14,-1,-1,-1,-1,16,-1,-1],"split_conditions":[1E0,3E0,2.3514824E-3,1.8E1,3.996E3,-0E0,8.86618E-1,-0E0,7.78942E-1,7.68806E-1,-0E0,-0E0,-2.9109663E-4,-0E0,5.695E3,-0E0,4.6804226E-3],"split_indices":[12,2,0,0,7,0,6,0,6,6,0,0,0,0,7,0,0],"split_type":[0,0,0,0,0,0,0,0,0,0,0,0,0,0,0,0,0],"sum_hessian":[9.05E2,8.82E2,2.3E1,2.3E2,6.52E2,1.44E2,8.6E1,2.1E1,6.31E2,4.1E1,4.5E1,1.91E2,4.4E2,1.4E1,2.7E1,1E1,1.7E1],"tree_param":{"num_deleted":"0","num_feature":"18","num_nodes":"17","size_leaf_vector":"1"}},{"base_weights":[2.4542825E-3,-9.977245E-5,2.3230933E-2,5.5383082E-2,-0E0,-0E0,2.5843078E-1,-0E0,-1.3219703E-4,1.7005825E-2,-0E0,-0E0,3.715416E-1,4.27866E-2,-0E0,-0E0,-3.310556E-3,5.805684E-1,-0E0,7.1393914E-4,-0E0,-1.7225675E-4,-0E0,-0E0,9.716961E-3],"categories":[],"categories_nodes":[],"categories_segments":[],"categories_sizes":[],"default_left":[0,0,0,0,0,0,0,0,0,0,0,0,0,0,0,0,0,0,0,0,0,0,0,0,0],"id":58,"left_children":[1,-1,3,5,7,9,11,-1,-1,13,15,-1,17,19,-1,-1,21,23,-1,-1,-1,-1,-1,-1,-1],"loss_changes":[3.5410303E-1,0E0,8.8058865E-1,3.1933405E0,3.404284E-2,1.6773848E-2,2.356296E0,0E0,0E0,6.74403E-2,2.7618788E-3,0E0,1.3255639E0,5.6938335E-2,0E0,0E0,5.362238E-2,2.7303848E0,0E0,0E0,0E0,0E0,0E0,0E0,0E0],"parents":[2147483647,0,0,2,2,3,3,4,4,5,5,6,6,9,9,10,10,12,12,13,13,16,16,17,17],"right_children":[2,-1,4,6,8,10,12,-1,-1,14,16,-1,18,20,-1,-1,22,24,-1,-1,-1,-1,-1,-1,-1],"split_conditions":[2.582862E0,-9.977245E-5,8.88886E-1,8.7762E-1,3.996E3,1.2E1,5.344E3,-0E0,-1.3219703E-4,8.56973E-1,5.422E3,-0E0,2.849181E0,9.1E3,-0E0,-0E0,1.2384E4,8.81903E-1,-0E0,7.1393914E-4,-0E0,-1.7225675E-4,-0E0,-0E0,9.716961E-3],"split_indices":[8,0,6,6,7,1,7,0,0,6,7,0,8,7,0,0,7,6,0,0,0,0,0,0,0],"split_type":[0,0,0,0,0,0,0,0,0,0,0,0,0,0,0,0,0,0,0,0,0,0,0,0,0],"sum_hessian":[8.86E2,2.67E2,6.19E2,3.96E2,2.23E2,3.3E2,6.6E1,1.9E1,2.04E2,5.8E1,2.72E2,1.7E1,4.9E1,4.6E1,1.2E1,2E1,2.52E2,2.4E1,2.5E1,2.9E1,1.7E1,1.99E2,5.3E1,1.2E1,1.2E1],"tree_param":{"num_deleted":"0","num_feature":"18","num_nodes":"25","size_leaf_vector":"1"}},{"base_weights":[-0E0,-1.031807E-2,-0E0,-0E0,-2.1678675E-2,2.2143904E-2,-0E0,-0E0,-2.5664226E-4,4.092471E-2,-0E0,-0E0,1.2967679E-1,1.9734537E-3,-0E0],"categories":[],"categories_nodes":[],"categories_segments":[],"categories_sizes":[],"default_left":[0,0,0,0,0,0,0,0,0,0,0,0,0,0,0],"id":59,"left_children":[1,3,5,-1,7,9,-1,-1,-1,11,-1,-1,13,-1,-1],"loss_changes":[4.6524268E-2,1.4804181E-1,1.3778965E-1,0E0,9.8386705E-3,1.6033249E-1,0E0,0E0,0E0,5.258862E-1,0E0,0E0,5.519958E-1,0E0,0E0],"parents":[2147483647,0,0,1,1,2,2,4,4,5,5,9,9,12,12],"right_children":[2,4,6,-1,8,10,-1,-1,-1,12,-1,-1,14,-1,-1],"split_conditions":[9.63E2,3.996E3,1.248E3,-0E0,2.36411E0,1.1442E4,-0E0,-0E0,-2.5664226E-4,6.61E3,-0E0,-0E0,1E0,1.9734537E-3,-0E0],"split_indices":[5,7,5,0,8,7,0,0,0,7,0,0,3,0,0],"split_type":[0,0,0,0,0,0,0,0,0,0,0,0,0,0,0],"sum_hessian":[9.03E2,4.37E2,4.66E2,2.3E1,4.14E2,2.81E2,1.85E2,8.9E1,3.25E2,1.78E2,1.03E2,1.29E2,4.9E1,3.7E1,1.2E1],"tree_param":{"num_deleted":"0","num_feature":"18","num_nodes":"15","size_leaf_vector":"1"}},{"base_weights":[-0E0,-4.8725717E-3,3.6132414E-2,-1.3584003E-2,-0E0,2.719546E-1,-0E0,-2.4516895E-4,-0E0,3.97509E-1,-0E0,-0E0,6.0462314E-3],"categories":[],"categories_nodes":[],"categories_segments":[],"categories_sizes":[],"default_left":[0,0,0,0,0,0,0,0,0,0,0,0,0],"id":60,"left_children":[1,3,5,7,-1,9,-1,-1,-1,11,-1,-1,-1],"loss_changes":[2.8088844E-1,1.0665114E-1,3.0645378E0,1.3446543E-1,0E0,1.8863776E0,0E0,0E0,0E0,2.116376E0,0E0,0E0,0E0],"parents":[2147483647,0,0,1,1,2,2,3,3,5,5,9,9],"right_children":[2,4,6,8,-1,10,-1,-1,-1,12,-1,-1,-1],"split_conditions":[1.236E3,3.28003E0,1.284E3,5E0,-0E0,5E0,-0E0,-2.4516895E-4,-0E0,1.8E1,-0E0,-0E0,6.0462314E-3],"split_indices":[5,8,5,2,0,2,0,0,0,1,0,0,0],"split_type":[0,0,0,0,0,0,0,0,0,0,0,0,0],"sum_hessian":[9.25E2,7.23E2,2.02E2,6.71E2,5.2E1,4.5E1,1.57E2,4.5E2,2.21E2,3.3E1,1.2E1,1.2E1,2.1E1],"tree_param":{"num_deleted":"0","num_feature":"18","num_nodes":"13","size_leaf_vector":"1"}},{"base_weights":[-0E0,-3.3398464E-3,1.6887078E-2,-0E0,-1.4793788E-2,5.8994763E-2,-0E0,-0E0,-1.664241E-2,-0E0,4.0770555E-1,-1.4853383E-5,-0E0,-1.8755706E-4,-0E0,4.3881466E-3,-0E0,8.109896E-3,-0E0,2.3085436E-2,-0E0,-0E0,2.6934968E-2,3.3381284E-4,-0E0],"categories":[],"categories_nodes":[],"categories_segments":[],"categories_sizes":[],"default_left":[0,0,0,0,0,0,0,0,0,0,0,0,0,0,0,0,0,0,0,0,0,0,0,0,0],"id":61,"left_children":[1,3,5,-1,7,9,11,-1,13,15,17,-1,-1,-1,-1,19,-1,-1,-1,21,-1,-1,23,-1,-1],"loss_changes":[1.3607702E-1,8.6585276E-2,8.850957E-1,0E0,4.7216564E-4,3.3057494E0,3.054724E-4,0E0,1.5535675E-2,4.043749E-3,5.0991993E0,0E0,0E0,0E0,0E0,6.5238774E-2,0E0,0E0,0E0,6.169595E-3,0E0,0E0,1.818423E-2,0E0,0E0],"parents":[2147483647,0,0,1,1,2,2,4,4,5,5,6,6,8,8,9,9,10,10,15,15,19,19,22,22],"right_children":[2,4,6,-1,8,10,12,-1,14,16,18,-1,-1,-1,-1,20,-1,-1,-1,22,-1,-1,24,-1,-1],"split_conditions":[9.66E2,3.996E3,1.284E3,-0E0,2.36411E0,8.81903E-1,6.165E3,-0E0,1.3722E4,1.2462E4,8.85895E-1,-1.4853383E-5,-0E0,-1.8755706E-4,-0E0,8.32129E-1,-0E0,8.109896E-3,-0E0,7.21489E-1,-0E0,-0E0,1.1442E4,3.3381284E-4,-0E0],"split_indices":[5,7,5,0,8,6,7,0,7,7,6,0,0,0,0,6,0,0,0,6,0,0,7,0,0],"split_type":[0,0,0,0,0,0,0,0,0,0,0,0,0,0,0,0,0,0,0,0,0,0,0,0,0],"sum_hessian":[8.99E2,4.39E2,4.6E2,2.1E1,4.18E2,2.92E2,1.68E2,8.6E1,3.32E2,2.66E2,2.6E1,1.45E2,2.3E1,3.2E2,1.2E1,2.1E2,5.6E1,1.5E1,1.1E1,1.3E2,8E1,2.6E1,1.04E2,8.8E1,1.6E1],"tree_param":{"num_deleted":"0","num_feature":"18","num_nodes":"25","size_leaf_vector":"1"}},{"base_weights":[-0E0,-0E0,-4.540305E-3,-0E0,2.0641243E-2,-0E0,-1.0474469E-4,-0E0,-1.7000166E-4,4.195407E-2,-0E0,5.956456E-2,-0E0,-0E0,1.2233651E-1,1.6771592E-1,-0E0,-0E0,2.0215919E-3],"categories":[],"categories_nodes":[],"categories_segments":[],"categories_sizes":[],"default_left":[0,0,0,0,0,0,0,0,0,0,0,0,0,0,0,0,0,0,0],"id":62,"left_children":[1,3,5,7,9,-1,-1,-1,-1,11,-1,13,-1,-1,15,17,-1,-1,-1],"loss_changes":[4.7207167E-3,1.8278065E-1,1.8118046E-2,6.0160972E-2,3.5054514E-1,0E0,0E0,0E0,0E0,3.8914216E-1,0E0,6.04105E-1,0E0,0E0,3.0182266E-1,1.2287426E-1,0E0,0E0,0E0],"parents":[2147483647,0,0,1,1,2,2,3,3,4,4,9,9,11,11,14,14,15,15],"right_children":[2,4,6,8,10,-1,-1,-1,-1,12,-1,14,-1,-1,16,18,-1,-1,-1],"split_conditions":[1.1442E4,5.385E3,7.05572E-1,3.996E3,4.2E1,-0E0,-1.0474469E-4,-0E0,-1.7000166E-4,8.88886E-1,-0E0,8.07926E-1,-0E0,-0E0,6.071E3,8.3004E-1,-0E0,-0E0,2.0215919E-3],"split_indices":[7,7,6,7,1,0,0,0,0,6,0,6,0,0,7,6,0,0,0],"split_type":[0,0,0,0,0,0,0,0,0,0,0,0,0,0,0,0,0,0,0],"sum_hessian":[9.02E2,6.73E2,2.29E2,2.44E2,4.29E2,1.1E1,2.18E2,2.6E1,2.18E2,3.03E2,1.26E2,2.6E2,4.3E1,1.58E2,1.02E2,6.5E1,3.7E1,1.5E1,5E1],"tree_param":{"num_deleted":"0","num_feature":"18","num_nodes":"19","size_leaf_vector":"1"}},{"base_weights":[5.716649E-4,-9.474259E-5,4.627325E-1,-1.2639927E-2,-0E0,-0E0,9.128656E-3,-0E0,-2.3989234E-2,3.2030735E-2,-5.129727E-3,-2.835537E-4,-0E0,5.9992064E-2,-0E0,-1.0023553E-4,-0E0,-0E0,9.856793E-4],"categories":[],"categories_nodes":[],"categories_segments":[],"categories_sizes":[],"default_left":[0,0,0,0,0,0,0,0,0,0,0,0,0,0,0,0,0,0,0],"id":63,"left_children":[1,3,5,7,9,-1,-1,-1,11,13,15,-1,-1,17,-1,-1,-1,-1,-1],"loss_changes":[4.710659E0,7.348575E-2,3.2473073E0,1.7914456E-1,2.181655E-1,0E0,0E0,0E0,4.985681E-2,3.7684566E-1,1.0683332E-2,0E0,0E0,4.3954188E-1,0E0,0E0,0E0,0E0,0E0],"parents":[2147483647,0,0,1,1,2,2,3,3,4,4,8,8,9,9,10,10,13,13],"right_children":[2,4,6,8,10,-1,-1,-1,12,14,16,-1,-1,18,-1,-1,-1,-1,-1],"split_conditions":[1E0,1.023E3,2.770966E0,3.996E3,1.26E3,-0E0,9.128656E-3,-0E0,3.28003E0,2.837853E0,6.165E3,-2.835537E-4,-0E0,2.582862E0,-0E0,-1.0023553E-4,-0E0,-0E0,9.856793E-4],"split_indices":[12,5,8,7,5,0,0,0,8,8,7,0,0,8,0,0,0,0,0],"split_type":[0,0,0,0,0,0,0,0,0,0,0,0,0,0,0,0,0,0,0],"sum_hessian":[8.71E2,8.49E2,2.2E1,4.6E2,3.89E2,1.2E1,1E1,2.1E1,4.39E2,2.08E2,1.81E2,3.94E2,4.5E1,1.64E2,4.4E1,1.61E2,2E1,5.3E1,1.11E2],"tree_param":{"num_deleted":"0","num_feature":"18","num_nodes":"19","size_leaf_vector":"1"}},{"base_weights":[-9.3460927E-4,-1.0325622E-2,-0E0,-0E0,-2.2412196E-4,-0E0,3.0402204E-3,-0E0,1.7216038E-2,4.1166574E-2,-0E0,5.0920077E-2,-0E0,6.3020166E-4,-0E0],"categories":[],"categories_nodes":[],"categories_segments":[],"categories_sizes":[],"default_left":[0,0,0,0,0,0,0,0,0,0,0,0,0,0,0],"id":64,"left_children":[1,3,5,-1,-1,-1,7,-1,9,11,-1,13,-1,-1,-1],"loss_changes":[4.6327118E-2,1.557642E-1,3.4106562E-3,0E0,0E0,0E0,6.742738E-2,0E0,2.4437582E-1,1.3335314E-1,0E0,1.6200641E-1,0E0,0E0,0E0],"parents":[2147483647,0,0,1,1,2,2,6,6,8,8,9,9,11,11],"right_children":[2,4,6,-1,-1,-1,8,-1,10,12,-1,14,-1,-1,-1],"split_conditions":[1.6E1,3.996E3,5.385E3,-0E0,-2.2412196E-4,-0E0,7.73875E-1,-0E0,8.88886E-1,1E0,-0E0,1E0,-0E0,6.3020166E-4,-0E0],"split_indices":[0,7,7,0,0,0,6,0,6,17,0,14,0,0,0],"split_type":[0,0,0,0,0,0,0,0,0,0,0,0,0,0,0],"sum_hessian":[9.14E2,4.42E2,4.72E2,1.9E1,4.23E2,1.03E2,3.69E2,1.3E2,2.39E2,1.86E2,5.3E1,1.73E2,1.3E1,1.61E2,1.2E1],"tree_param":{"num_deleted":"0","num_feature":"18","num_nodes":"15","size_leaf_vector":"1"}},{"base_weights":[-0E0,-6.1365124E-3,1.5431569E-3,-0E0,-2.358798E-4,-3.8039554E-3,4.3465546E-3,-0E0,-1.2910082E-4,-0E0,2.8517803E-2,5.103869E-2,-0E0,-0E0,1.089269E-3],"categories":[],"categories_nodes":[],"categories_segments":[],"categories_sizes":[],"default_left":[0,0,0,0,0,0,0,0,0,0,0,0,0,0,0],"id":65,"left_children":[1,3,-1,5,-1,7,9,-1,-1,-1,11,13,-1,-1,-1],"loss_changes":[3.7455124E-1,1.0204013E-1,0E0,1.0698616E-2,0E0,3.3753987E-2,1.7315798E-1,0E0,0E0,0E0,2.5790185E-1,3.6679083E-1,0E0,0E0,0E0],"parents":[2147483647,0,0,1,1,3,3,5,5,6,6,10,10,11,11],"right_children":[2,4,-1,6,-1,8,10,-1,-1,-1,12,14,-1,-1,-1],"split_conditions":[2E0,8.86618E-1,1.5431569E-3,7.70597E-1,-2.358798E-4,7.20321E-1,1.3E1,-0E0,-1.2910082E-4,-0E0,2.837853E0,2.61746E0,-0E0,-0E0,1.089269E-3],"split_indices":[12,6,0,6,0,6,0,0,0,0,8,8,0,0,0],"split_type":[0,0,0,0,0,0,0,0,0,0,0,0,0,0,0],"sum_hessian":[9.03E2,8.88E2,1.5E1,6.33E2,2.55E2,2.85E2,3.48E2,4.7E1,2.38E2,1.27E2,2.21E2,1.68E2,5.3E1,9.7E1,7.1E1],"tree_param":{"num_deleted":"0","num_feature":"18","num_nodes":"15","size_leaf_vector":"1"}},{"base_weights":[-0E0,-3.0486257E-4,1.0181994E-2,4.7773E-2,-0E0,-0E0,9.418133E-2,-0E0,-9.542906E-5,-0E0,1.2748869E-1,1.9276746E-3,-0E0],"categories":[],"categories_nodes":[],"categories_segments":[],"categories_sizes":[],"default_left":[0,0,0,0,0,0,0,0,0,0,0,0,0],"id":66,"left_children":[1,-1,3,5,7,-1,9,-1,-1,-1,11,-1,-1],"loss_changes":[4.3373135E-1,0E0,5.850189E-1,9.7990245E-1,1.634826E-2,0E0,8.561585E-1,0E0,0E0,0E0,8.6488867E-1,0E0,0E0],"parents":[2147483647,0,0,2,2,3,3,4,4,6,6,10,10],"right_children":[2,-1,4,6,8,-1,10,-1,-1,-1,12,-1,-1],"split_conditions":[9.63E2,-3.0486257E-4,2.854028E0,2.582862E0,9.78E2,-0E0,5.385E3,-0E0,-9.542906E-5,-0E0,6.629E3,1.9276746E-3,-0E0],"split_indices":[5,0,8,8,5,0,7,0,0,0,7,0,0],"split_type":[0,0,0,0,0,0,0,0,0,0,0,0,0],"sum_hessian":[9.1E2,4.33E2,4.77E2,2.78E2,1.99E2,9.6E1,1.82E2,1.1E1,1.88E2,3E1,1.52E2,9.4E1,5.8E1],"tree_param":{"num_deleted":"0","num_feature":"18","num_nodes":"13","size_leaf_vector":"1"}},{"base_weights":[-0E0,-1.7543683E-3,1.2890004E-4,-0E0,-1.20614795E-2,8.197796E-3,-0E0,-0E0,-2.0209399E-4,-0E0,9.822277E-2,-0E0,1.7709243E-3],"categories":[],"categories_nodes":[],"categories_segments":[],"categories_sizes":[],"default_left":[0,0,0,0,0,0,0,0,0,0,0,0,0],"id":67,"left_children":[1,3,-1,5,7,9,-1,-1,-1,-1,11,-1,-1],"loss_changes":[5.4550637E-3,9.52955E-2,0E0,9.811846E-3,1.5700245E-1,3.9540404E-1,0E0,0E0,0E0,0E0,3.4348986E-1,0E0,0E0],"parents":[2147483647,0,0,1,1,3,3,4,4,5,5,10,10],"right_children":[2,4,-1,6,8,10,-1,-1,-1,-1,12,-1,-1],"split_conditions":[1E0,3E0,1.2890004E-4,1.32E4,3.996E3,6.519E3,-0E0,-0E0,-2.0209399E-4,-0E0,3E1,-0E0,1.7709243E-3],"split_indices":[12,2,0,7,7,7,0,0,0,0,1,0,0],"split_type":[0,0,0,0,0,0,0,0,0,0,0,0,0],"sum_hessian":[9.13E2,8.96E2,1.7E1,2.22E2,6.74E2,1.46E2,7.6E1,2E1,6.54E2,1.04E2,4.2E1,1.7E1,2.5E1],"tree_param":{"num_deleted":"0","num_feature":"18","num_nodes":"13","size_leaf_vector":"1"}},{"base_weights":[3.1767678E-3,-0E0,2.0202543E-3,-6.735268E-3,8.137063E-3,-1.6084911E-2,-0E0,6.034792E-2,-0E0,-2.0238946E-4,-0E0,7.265083E-2,-0E0,-0E0,8.6678885E-2,-0E0,1.2997225E-1,1.5866297E-3,-0E0],"categories":[],"categories_nodes":[],"categories_segments":[],"categories_sizes":[],"default_left":[0,0,0,0,0,0,0,0,0,0,0,0,0,0,0,0,0,0,0],"id":68,"left_children":[1,3,-1,5,7,9,-1,11,-1,-1,-1,13,-1,-1,15,-1,17,-1,-1],"loss_changes":[7.3141867E-1,4.7210924E-2,0E0,8.506685E-2,6.0382813E-1,3.6976166E-2,0E0,1.7587775E-1,0E0,0E0,0E0,9.179944E-2,0E0,0E0,3.2221794E-1,0E0,3.3711076E-2,0E0,0E0],"parents":[2147483647,0,0,1,1,3,3,4,4,5,5,7,7,11,11,14,14,16,16],"right_children":[2,4,-1,6,8,10,-1,12,-1,-1,-1,14,-1,-1,16,-1,18,-1,-1],"split_conditions":[1E0,1.086E3,2.0202543E-3,4.8E1,1.263E3,1.023E3,-0E0,5.4E1,-0E0,-2.0238946E-4,-0E0,1.119E3,-0E0,-0E0,2.4E1,-0E0,4.8E1,1.5866297E-3,-0E0],"split_indices":[12,5,0,1,5,5,0,1,0,0,0,5,0,0,1,0,1,0,0],"split_type":[0,0,0,0,0,0,0,0,0,0,0,0,0,0,0,0,0,0,0],"sum_hessian":[9.03E2,8.84E2,1.9E1,5.43E2,3.41E2,4.24E2,1.19E2,1.72E2,1.69E2,3.75E2,4.9E1,1.52E2,2E1,3.3E1,1.19E2,4.7E1,7.2E1,5.2E1,2E1],"tree_param":{"num_deleted":"0","num_feature":"18","num_nodes":"19","size_leaf_vector":"1"}},{"base_weights":[-0E0,-3.3657958E-3,1.7725088E-3,-1.7840195E-2,-0E0,-0E0,-2.0095754E-2,-0E0,2.2271298E-2,-2.5771416E-4,-0E0,4.6824932E-2,-0E0,9.884233E-2,-0E0,1.2854947E-1,-0E0,-0E0,3.623381E-3],"categories":[],"categories_nodes":[],"categories_segments":[],"categories_sizes":[],"default_left":[0,0,0,0,0,0,0,0,0,0,0,0,0,0,0,0,0,0,0],"id":69,"left_children":[1,3,-1,5,7,-1,9,-1,11,-1,-1,13,-1,15,-1,17,-1,-1,-1],"loss_changes":[4.3024927E-1,2.0303597E-1,0E0,5.329147E-2,7.886632E-2,0E0,3.9150536E-2,0E0,1.3600866E-1,0E0,0E0,4.4948393E-1,0E0,2.7758467E-1,0E0,3.1186575E-1,0E0,0E0,0E0],"parents":[2147483647,0,0,1,1,3,3,4,4,6,6,8,8,11,11,13,13,15,15],"right_children":[2,4,-1,6,8,-1,10,-1,12,-1,-1,14,-1,16,-1,18,-1,-1,-1],"split_conditions":[2E0,4.5E1,1.7725088E-3,7.02727E-1,7.70152E-1,-0E0,1.173E3,-0E0,5.4E1,-2.5771416E-4,-0E0,1.248E3,-0E0,9.33769E-1,-0E0,8.68609E-1,-0E0,-0E0,3.623381E-3],"split_indices":[12,1,0,6,6,0,5,0,1,0,0,5,0,6,0,6,0,0,0],"split_type":[0,0,0,0,0,0,0,0,0,0,0,0,0,0,0,0,0,0,0],"sum_hessian":[9.15E2,9.01E2,1.4E1,6.7E2,2.31E2,1E1,6.6E2,7.2E1,1.59E2,4.82E2,1.78E2,9.8E1,6.1E1,6.8E1,3E1,5.7E1,1.1E1,4.7E1,1E1],"tree_param":{"num_deleted":"0","num_feature":"18","num_nodes":"19","size_leaf_vector":"1"}},{"base_weights":[7.243004E-3,-2.9659923E-3,3.732001E-2,-0E0,-1.4146872E-2,7.161988E-2,-0E0,-0E0,-1.5951632E-2,4.5471834E-3,3.4283608E-1,-1.800657E-4,-0E0,-0E0,2.6807172E-2,-0E0,4.722956E-1,3.7683897E-2,-0E0,8.797179E-3,-0E0,4.8955686E-2,-0E0,5.789227E-4,-0E0],"categories":[],"categories_nodes":[],"categories_segments":[],"categories_sizes":[],"default_left":[0,0,0,0,0,0,0,0,0,0,0,0,0,0,0,0,0,0,0,0,0,0,0,0,0],"id":70,"left_children":[1,3,5,-1,7,9,-1,-1,11,13,15,-1,-1,-1,17,-1,19,21,-1,-1,-1,23,-1,-1,-1],"loss_changes":[6.1298484E-1,8.189902E-2,1.1635509E0,0E0,9.11586E-4,3.122208E0,0E0,0E0,1.5401579E-2,1.4659601E-1,2.2016153E0,0E0,0E0,0E0,1.1674835E-1,0E0,1.7304549E0,1.4720547E-1,0E0,0E0,0E0,1.0783151E-1,0E0,0E0,0E0],"parents":[2147483647,0,0,1,1,2,2,4,4,5,5,8,8,9,9,10,10,14,14,16,16,17,17,21,21],"right_children":[2,4,6,-1,8,10,-1,-1,12,14,16,-1,-1,-1,18,-1,20,22,-1,-1,-1,24,-1,-1,-1],"split_conditions":[1.6E1,3.996E3,8.89838E-1,-0E0,2.36411E0,8.83331E-1,-0E0,-0E0,1.3642E4,2.61746E0,5.385E3,-1.800657E-4,-0E0,-0E0,1.32E4,-0E0,2.854028E0,2.1E1,-0E0,8.797179E-3,-0E0,1E0,-0E0,5.789227E-4,-0E0],"split_indices":[0,7,6,0,8,6,0,0,7,8,7,0,0,0,7,0,8,0,0,0,0,15,0,0,0],"split_type":[0,0,0,0,0,0,0,0,0,0,0,0,0,0,0,0,0,0,0,0,0,0,0,0,0],"sum_hessian":[9.22E2,4.5E2,4.72E2,2.1E1,4.29E2,3.55E2,1.17E2,8.8E1,3.41E2,3.13E2,4.2E1,3.3E2,1.1E1,1E2,2.13E2,1E1,3.2E1,1.9E2,2.3E1,1.2E1,2E1,1.74E2,1.6E1,1.64E2,1E1],"tree_param":{"num_deleted":"0","num_feature":"18","num_nodes":"25","size_leaf_vector":"1"}},{"base_weights":[-0E0,-6.262943E-3,3.467448E-3,-1.5977392E-2,-0E0,-0E0,-3.075162E-4,-0E0,8.082666E-3,1.982692E-2,-0E0,-0E0,3.3756628E-4],"categories":[],"categories_nodes":[],"categories_segments":[],"categories_sizes":[],"default_left":[0,0,0,0,0,0,0,0,0,0,0,0,0],"id":71,"left_children":[1,3,-1,5,7,-1,-1,-1,9,11,-1,-1,-1],"loss_changes":[1.9875216E0,1.1623509E-1,0E0,1.9305517E-1,7.7089616E-3,0E0,0E0,0E0,3.1209102E-2,5.2483432E-2,0E0,0E0,0E0],"parents":[2147483647,0,0,1,1,3,3,4,4,8,8,9,9],"right_children":[2,4,-1,6,8,-1,-1,-1,10,12,-1,-1,-1],"split_conditions":[2E0,5E0,3.467448E-3,3E0,3.9E1,-0E0,-3.075162E-4,-0E0,9.33769E-1,7.6759E-1,-0E0,-0E0,3.3756628E-4],"split_indices":[12,2,0,2,1,0,0,0,6,6,0,0,0],"split_type":[0,0,0,0,0,0,0,0,0,0,0,0,0],"sum_hessian":[9.26E2,9.09E2,1.7E1,5.95E2,3.14E2,2.13E2,3.82E2,1.96E2,1.18E2,9.9E1,1.9E1,1.5E1,8.4E1],"tree_param":{"num_deleted":"0","num_feature":"18","num_nodes":"13","size_leaf_vector":"1"}},{"base_weights":[-0E0,-0E0,1.0683029E-2,-0E0,-8.1927275E-5,4.040837E-2,-0E0,-0E0,1.21182516E-1,-0E0,2.129077E-3],"categories":[],"categories_nodes":[],"categories_segments":[],"categories_sizes":[],"default_left":[0,0,0,0,0,0,0,0,0,0,0],"id":72,"left_children":[1,3,5,-1,-1,7,-1,-1,9,-1,-1],"loss_changes":[5.386813E-2,2.3650177E-2,4.7354E-1,0E0,0E0,3.684075E-1,0E0,0E0,9.654709E-1,0E0,0E0],"parents":[2147483647,0,0,1,1,2,2,5,5,8,8],"right_children":[2,4,6,-1,-1,8,-1,-1,10,-1,-1],"split_conditions":[9.63E2,5.7E1,1.284E3,-0E0,-8.1927275E-5,1.224E3,-0E0,-0E0,2.582862E0,-0E0,2.129077E-3],"split_indices":[5,5,5,0,0,5,0,0,8,0,0],"split_type":[0,0,0,0,0,0,0,0,0,0,0],"sum_hessian":[8.92E2,4.2E2,4.72E2,5.1E1,3.69E2,3.23E2,1.49E2,2.62E2,6.1E1,1.8E1,4.3E1],"tree_param":{"num_deleted":"0","num_feature":"18","num_nodes":"11","size_leaf_vector":"1"}},{"base_weights":[3.4895113E-3,-0E0,4.0391674E-3,-9.376873E-3,-0E0,-1.7931634E-4,-0E0,2.6830725E-2,-0E0,8.1209984E-4,-0E0],"categories":[],"categories_nodes":[],"categories_segments":[],"categories_sizes":[],"default_left":[0,0,0,0,0,0,0,0,0,0,0],"id":73,"left_children":[1,3,-1,5,7,-1,-1,9,-1,-1,-1],"loss_changes":[3.7281277E0,4.29958E-2,0E0,9.0258226E-2,1.590961E-1,0E0,0E0,1.8727441E-1,0E0,0E0,0E0],"parents":[2147483647,0,0,1,1,3,3,4,4,7,7],"right_children":[2,4,-1,6,8,-1,-1,10,-1,-1,-1],"split_conditions":[1E0,1.7E1,4.0391674E-3,6E0,2.1E1,-1.7931634E-4,-0E0,3E0,-0E0,8.1209984E-4,-0E0],"split_indices":[12,0,0,2,0,0,0,2,0,0,0],"split_type":[0,0,0,0,0,0,0,0,0,0,0],"sum_hessian":[9.01E2,8.77E2,2.4E1,4.89E2,3.88E2,4.34E2,5.5E1,2.21E2,1.67E2,5.5E1,1.66E2],"tree_param":{"num_deleted":"0","num_feature":"18","num_nodes":"11","size_leaf_vector":"1"}},{"base_weights":[-0E0,-7.921069E-3,-0E0,-1.4272965E-2,-0E0,1.5475405E-2,-0E0,-0E0,-1.573735E-2,-0E0,2.5774388E-2,-1.9088335E-4,-0E0,3.4564447E-2,-0E0,-0E0,3.9906066E-4],"categories":[],"categories_nodes":[],"categories_segments":[],"categories_sizes":[],"default_left":[0,0,0,0,0,0,0,0,0,0,0,0,0,0,0,0,0],"id":74,"left_children":[1,3,5,7,-1,9,-1,-1,11,-1,13,-1,-1,15,-1,-1,-1],"loss_changes":[3.519909E-2,6.76785E-2,4.933486E-2,7.085599E-3,0E0,6.559316E-2,0E0,0E0,3.477405E-2,0E0,7.980971E-2,0E0,0E0,5.9890896E-3,0E0,0E0,0E0],"parents":[2147483647,0,0,1,1,2,2,3,3,5,5,8,8,10,10,13,13],"right_children":[2,4,6,8,-1,10,-1,-1,12,-1,14,-1,-1,16,-1,-1,-1],"split_conditions":[1.086E3,6E0,1.284E3,7.22153E-1,-0E0,7.74271E-1,-0E0,-0E0,1.029E3,-0E0,1E0,-1.9088335E-4,-0E0,8.09591E-1,-0E0,-0E0,3.9906066E-4],"split_indices":[5,2,5,6,0,6,0,0,5,0,13,0,0,6,0,0,0],"split_type":[0,0,0,0,0,0,0,0,0,0,0,0,0,0,0,0,0],"sum_hessian":[9.18E2,5.61E2,3.57E2,5.05E2,5.6E1,2.06E2,1.51E2,6.1E1,4.44E2,3.3E1,1.73E2,4.16E2,2.8E1,1.63E2,1E1,3.1E1,1.32E2],"tree_param":{"num_deleted":"0","num_feature":"18","num_nodes":"17","size_leaf_vector":"1"}},{"base_weights":[-0E0,-0E0,2.8592119E-2,-8.110472E-3,-0E0,8.454878E-2,-0E0,-1.6695939E-2,-0E0,-0E0,1.6483779E-1,-1.8950074E-4,-0E0,2.6506138E-1,-0E0,-0E0,8.027669E-3],"categories":[],"categories_nodes":[],"categories_segments":[],"categories_sizes":[],"default_left":[0,0,0,0,0,0,0,0,0,0,0,0,0,0,0,0,0],"id":75,"left_children":[1,3,5,7,-1,9,-1,11,-1,-1,13,-1,-1,15,-1,-1,-1],"loss_changes":[2.6405647E-1,3.8283896E-2,9.226029E-1,9.1616005E-2,0E0,1.802239E0,0E0,3.8327277E-3,0E0,0E0,1.9292159E0,0E0,0E0,4.3130326E0,0E0,0E0,0E0],"parents":[2147483647,0,0,1,1,2,2,3,3,5,5,7,7,10,10,13,13],"right_children":[2,4,6,8,-1,10,-1,12,-1,-1,14,-1,-1,16,-1,-1,-1],"split_conditions":[1.119E3,1E0,1.284E3,4.8E1,-0E0,1.8E1,-0E0,1.023E3,-0E0,-0E0,4.8E1,-1.8950074E-4,-0E0,1.233E3,-0E0,-0E0,8.027669E-3],"split_indices":[5,13,5,1,0,1,0,5,0,0,1,0,0,5,0,0,0],"split_type":[0,0,0,0,0,0,0,0,0,0,0,0,0,0,0,0,0],"sum_hessian":[9.16E2,5.93E2,3.23E2,5.82E2,1.1E1,1.66E2,1.57E2,4.66E2,1.16E2,5.6E1,1.1E2,3.9E2,7.6E1,7E1,4E1,5.5E1,1.5E1],"tree_param":{"num_deleted":"0","num_feature":"18","num_nodes":"17","size_leaf_vector":"1"}},{"base_weights":[-0E0,-0E0,2.6199168E-1,-7.738664E-3,-0E0,-0E0,3.94497E-3,-0E0,-1.6418453E-2,3.138585E-2,-0E0,-1.8547159E-2,-0E0,7.464033E-2,-0E0,-6.995781E-5,-0E0,-0E0,-2.1371687E-2,-0E0,1.0440465E-1,-2.505457E-4,-0E0,1.3785914E-3,-0E0],"categories":[],"categories_nodes":[],"categories_segments":[],"categories_sizes":[],"default_left":[0,0,0,0,0,0,0,0,0,0,0,0,0,0,0,0,0,0,0,0,0,0,0,0,0],"id":76,"left_children":[1,3,5,7,9,-1,-1,-1,11,13,15,17,-1,19,-1,-1,-1,-1,21,-1,23,-1,-1,-1,-1],"loss_changes":[1.372878E0,3.4435052E-2,1.1336911E-1,1.143655E-1,1.2904559E-1,0E0,0E0,0E0,2.4918407E-2,3.9465213E-1,7.1034464E-3,1.8572927E-2,0E0,3.3744192E-1,0E0,0E0,0E0,0E0,1.030919E-2,0E0,3.7292397E-1,0E0,0E0,0E0,0E0],"parents":[2147483647,0,0,1,1,2,2,3,3,4,4,8,8,9,9,10,10,11,11,13,13,18,18,20,20],"right_children":[2,4,6,8,10,-1,-1,-1,12,14,16,18,-1,20,-1,-1,-1,-1,22,-1,24,-1,-1,-1,-1],"split_conditions":[1E0,1.119E3,2.761939E0,3.996E3,1.263E3,-0E0,3.94497E-3,-0E0,3.28003E0,1.1442E4,6.142E3,2.36411E0,-0E0,5.385E3,-0E0,-6.995781E-5,-0E0,-0E0,1.023E3,-0E0,2.837853E0,-2.505457E-4,-0E0,1.3785914E-3,-0E0],"split_indices":[12,5,8,7,5,0,0,0,8,7,7,8,0,7,0,0,0,0,5,0,8,0,0,0,0],"split_type":[0,0,0,0,0,0,0,0,0,0,0,0,0,0,0,0,0,0,0,0,0,0,0,0,0],"sum_hessian":[9E2,8.8E2,2E1,5.75E2,3.05E2,1E1,1E1,2.3E1,5.52E2,1.31E2,1.74E2,5.05E2,4.7E1,9.4E1,3.7E1,1.52E2,2.2E1,8.4E1,4.21E2,1.5E1,7.9E1,3.38E2,8.3E1,6.8E1,1.1E1],"tree_param":{"num_deleted":"0","num_feature":"18","num_nodes":"25","size_leaf_vector":"1"}},{"base_weights":[-0E0,-5.6403717E-3,3.2649E-1,-0E0,-1.126038E-2,-0E0,6.9218455E-3,-2.3767282E-4,-0E0],"categories":[],"categories_nodes":[],"categories_segments":[],"categories_sizes":[],"default_left":[0,0,0,0,0,0,0,0,0],"id":77,"left_children":[1,3,5,-1,7,-1,-1,-1,-1],"loss_changes":[2.6926084E0,7.943352E-2,2.8255715E0,0E0,1.1467674E-1,0E0,0E0,0E0,0E0],"parents":[2147483647,0,0,1,1,2,2,4,4],"right_children":[2,4,6,-1,8,-1,-1,-1,-1],"split_conditions":[1E0,3.996E3,2.761939E0,-0E0,9.63E2,-0E0,6.9218455E-3,-2.3767282E-4,-0E0],"split_indices":[12,7,8,0,5,0,0,0,0],"split_type":[0,0,0,0,0,0,0,0,0],"sum_hessian":[8.92E2,8.67E2,2.5E1,2.3E1,8.44E2,1.3E1,1.2E1,4.11E2,4.33E2],"tree_param":{"num_deleted":"0","num_feature":"18","num_nodes":"9","size_leaf_vector":"1"}},{"base_weights":[-0E0,-8.0182543E-4,9.358539E-3,-1.467153E-2,-0E0,4.2309877E-2,-0E0,-1.553913E-4,-0E0,5.2658413E-2,-0E0,-0E0,6.846E-2,-0E0,7.6429505E-4],"categories":[],"categories_nodes":[],"categories_segments":[],"categories_sizes":[],"default_left":[0,0,0,0,0,0,0,0,0,0,0,0,0,0,0],"id":78,"left_children":[1,3,5,7,-1,9,-1,-1,-1,11,-1,-1,13,-1,-1],"loss_changes":[3.9604854E-2,7.376725E-2,4.9413508E-1,4.2685866E-4,0E0,2.2632068E-1,0E0,0E0,0E0,2.572552E-1,0E0,0E0,6.5086246E-2,0E0,0E0],"parents":[2147483647,0,0,1,1,2,2,3,3,5,5,9,9,12,12],"right_children":[2,4,6,8,-1,10,-1,-1,-1,12,-1,-1,14,-1,-1],"split_conditions":[9.63E2,4.8E1,1.284E3,9.33E2,-0E0,5.4E1,-0E0,-1.553913E-4,-0E0,2.582862E0,-0E0,-0E0,7.18819E-1,-0E0,7.6429505E-4],"split_indices":[5,1,5,5,0,1,0,0,0,8,0,0,6,0,0],"split_type":[0,0,0,0,0,0,0,0,0,0,0,0,0,0,0],"sum_hessian":[8.85E2,4.36E2,4.49E2,3.44E2,9.2E1,2.98E2,1.51E2,3.23E2,2.1E1,2.74E2,2.4E1,5.7E1,2.17E2,2.3E1,1.94E2],"tree_param":{"num_deleted":"0","num_feature":"18","num_nodes":"15","size_leaf_vector":"1"}},{"base_weights":[5.5771633E-3,-0E0,2.1750676E-2,-0E0,-1.7205974E-4,4.166876E-3,-0E0,1.3949496E-2,-0E0,-0E0,4.4531804E-2,9.14644E-2,-0E0,-0E0,1.7014311E-1,3.5746157E-1,-0E0,6.1879125E-3,-0E0],"categories":[],"categories_nodes":[],"categories_segments":[],"categories_sizes":[],"default_left":[0,0,0,0,0,0,0,0,0,0,0,0,0,0,0,0,0,0,0],"id":79,"left_children":[1,3,5,-1,-1,-1,7,9,-1,-1,11,13,-1,-1,15,17,-1,-1,-1],"loss_changes":[2.8378037E-1,6.501869E-2,2.0090904E0,0E0,0E0,0E0,8.328409E-2,5.096597E-1,0E0,0E0,7.2048724E-1,1.1472423E0,0E0,0E0,1.8839631E0,7.7459097E-1,0E0,0E0,0E0],"parents":[2147483647,0,0,1,1,2,2,6,6,7,7,10,10,11,11,14,14,15,15],"right_children":[2,4,6,-1,-1,-1,8,10,-1,-1,12,14,-1,-1,16,18,-1,-1,-1],"split_conditions":[5.385E3,3.996E3,5.422E3,-0E0,-1.7205974E-4,4.166876E-3,1.1442E4,5.831E3,-0E0,-0E0,2.888779E0,2.4E1,-0E0,-0E0,4E0,6.629E3,-0E0,6.1879125E-3,-0E0],"split_indices":[7,7,7,0,0,0,7,7,0,0,8,1,0,0,2,7,0,0,0],"split_type":[0,0,0,0,0,0,0,0,0,0,0,0,0,0,0,0,0,0,0],"sum_hessian":[9.15E2,2.55E2,6.6E2,2.5E1,2.3E2,1.4E1,6.46E2,4.28E2,2.18E2,1.29E2,2.99E2,1.57E2,1.42E2,7.2E1,8.5E1,3.4E1,5.1E1,1.4E1,2E1],"tree_param":{"num_deleted":"0","num_feature":"18","num_nodes":"19","size_leaf_vector":"1"}},{"base_weights":[-0E0,-1.4027491E-2,3.7735142E-3,-0E0,-1.8585423E-2,-2.2440884E-4,-0E0],"categories":[],"categories_nodes":[],"categories_segments":[],"categories_sizes":[],"default_left":[0,0,0,0,0,0,0],"id":80,"left_children":[1,3,-1,-1,5,-1,-1],"loss_changes":[2.0790648E0,8.9613184E-2,0E0,0E0,1.7817378E-2,0E0,0E0],"parents":[2147483647,0,0,1,1,4,4],"right_children":[2,4,-1,-1,6,-1,-1],"split_conditions":[2E0,9E0,3.7735142E-3,-0E0,4.8E1,-2.2440884E-4,-0E0],"split_indices":[12,1,0,0,1,0,0],"split_type":[0,0,0,0,0,0,0],"sum_hessian":[9.05E2,8.91E2,1.4E1,1.24E2,7.67E2,5.88E2,1.79E2],"tree_param":{"num_deleted":"0","num_feature":"18","num_nodes":"7","size_leaf_vector":"1"}},{"base_weights":[-4.39834E-4,1.6197786E-2,-1.7733304E-2,-0E0,8.2524836E-2,-0E0,-1.9663718E-2,1.2421524E-1,-0E0,-0E0,-2.45145E-2,1.916403E-3,-0E0,-9.714768E-5,1.685913E-4,-0E0,-2.7066778E-4],"categories":[],"categories_nodes":[],"categories_segments":[],"categories_sizes":[],"default_left":[0,0,0,0,0,0,0,0,0,0,0,0,0,0,0,0,0],"id":81,"left_children":[1,3,5,-1,7,-1,9,11,-1,13,15,-1,-1,-1,-1,-1,-1],"loss_changes":[2.6765308E-1,5.2197623E-1,4.7291696E-2,0E0,3.6051732E-1,0E0,2.5652528E-2,6.5236336E-1,0E0,2.073928E-2,2.0123124E-2,0E0,0E0,0E0,0E0,0E0,0E0],"parents":[2147483647,0,0,1,1,2,2,4,4,6,6,7,7,9,9,10,10],"right_children":[2,4,6,-1,8,-1,10,12,-1,14,16,-1,-1,-1,-1,-1,-1],"split_conditions":[1.2E1,1.6E1,7.02727E-1,-0E0,9.1E3,-0E0,5.422E3,8.88886E-1,-0E0,5.376E3,1.1E1,1.916403E-3,-0E0,-9.714768E-5,1.685913E-4,-0E0,-2.7066778E-4],"split_indices":[1,0,6,0,7,0,7,6,0,7,0,0,0,0,0,0,0],"split_type":[0,0,0,0,0,0,0,0,0,0,0,0,0,0,0,0,0],"sum_hessian":[8.79E2,1.65E2,7.14E2,8.2E1,8.3E1,1.1E1,7.03E2,6E1,2.3E1,2.08E2,4.95E2,4.5E1,1.5E1,1.97E2,1.1E1,4.1E1,4.54E2],"tree_param":{"num_deleted":"0","num_feature":"18","num_nodes":"17","size_leaf_vector":"1"}},{"base_weights":[-0E0,-1.1909516E-2,1.1486411E-2,-0E0,-2.0340878E-4,3.8255066E-2,-0E0,-0E0,1.14193305E-1,3.2257193E-3,-0E0],"categories":[],"categories_nodes":[],"categories_segments":[],"categories_sizes":[],"default_left":[0,0,0,0,0,0,0,0,0,0,0],"id":82,"left_children":[1,3,5,-1,-1,7,-1,-1,9,-1,-1],"loss_changes":[1.2686993E-1,9.18569E-2,3.4974813E-1,0E0,0E0,3.7119153E-1,0E0,0E0,1.801008E0,0E0,0E0],"parents":[2147483647,0,0,1,1,2,2,5,5,8,8],"right_children":[2,4,6,-1,-1,8,-1,-1,10,-1,-1],"split_conditions":[1.6E1,8E0,2.1E1,-0E0,-2.0340878E-4,2E1,-0E0,-0E0,4E0,3.2257193E-3,-0E0],"split_indices":[0,0,0,0,0,0,0,0,2,0,0],"split_type":[0,0,0,0,0,0,0,0,0,0,0],"sum_hessian":[9.27E2,4.61E2,4.66E2,6.3E1,3.98E2,2.81E2,1.85E2,2.21E2,6E1,2.6E1,3.4E1],"tree_param":{"num_deleted":"0","num_feature":"18","num_nodes":"11","size_leaf_vector":"1"}},{"base_weights":[-0E0,-6.4465804E-3,3.050152E-3,-0E0,-1.0826908E-4,2.096089E-2,-0E0,-0E0,4.4390853E-2,-0E0,-8.695894E-5,-0E0,5.768554E-2,7.2449364E-2,-0E0,7.9789646E-2,-0E0,-0E0,8.913915E-4],"categories":[],"categories_nodes":[],"categories_segments":[],"categories_sizes":[],"default_left":[0,0,0,0,0,0,0,0,0,0,0,0,0,0,0,0,0,0,0],"id":83,"left_children":[1,3,5,-1,-1,7,9,-1,11,-1,-1,-1,13,15,-1,17,-1,-1,-1],"loss_changes":[1.8553298E-2,7.3353136E-3,1.6835809E-1,0E0,0E0,3.580637E-1,1.3863794E-2,0E0,2.7656585E-1,0E0,0E0,0E0,3.3040386E-1,1.7883003E-1,0E0,8.580756E-2,0E0,0E0,0E0],"parents":[2147483647,0,0,1,1,2,2,5,5,6,6,8,8,12,12,13,13,15,15],"right_children":[2,4,6,-1,-1,8,10,-1,12,-1,-1,-1,14,16,-1,18,-1,-1,-1],"split_conditions":[2.61746E0,2.413944E0,8.89838E-1,-0E0,-1.0826908E-4,1.6E1,3.996E3,-0E0,5.385E3,-0E0,-8.695894E-5,-0E0,1.32E4,1E0,-0E0,7.18819E-1,-0E0,-0E0,8.913915E-4],"split_indices":[8,8,6,0,0,0,7,0,7,0,0,0,7,17,0,6,0,0,0],"split_type":[0,0,0,0,0,0,0,0,0,0,0,0,0,0,0,0,0,0,0],"sum_hessian":[9.16E2,3.11E2,6.05E2,1.3E2,1.81E2,3.96E2,2.09E2,1.26E2,2.7E2,1.7E1,1.92E2,2.7E1,2.43E2,2.17E2,2.6E1,2.07E2,1E1,2.2E1,1.85E2],"tree_param":{"num_deleted":"0","num_feature":"18","num_nodes":"19","size_leaf_vector":"1"}},{"base_weights":[-0E0,-7.7635176E-3,2.2803353E-1,-2.1384314E-2,-0E0,-0E0,4.888142E-3,-0E0,-2.4824808E-4,1.8720817E-2,-0E0,4.2418685E-2,-0E0,6.6951476E-2,-0E0,-0E0,1.8529798E-1,-0E0,2.9227927E-3],"categories":[],"categories_nodes":[],"categories_segments":[],"categories_sizes":[],"default_left":[0,0,0,0,0,0,0,0,0,0,0,0,0,0,0,0,0,0,0],"id":84,"left_children":[1,3,5,7,9,-1,-1,-1,-1,11,-1,13,-1,15,-1,-1,17,-1,-1],"loss_changes":[1.1967874E0,1.9328374E-1,1.1378223E0,1.7023012E-2,5.817829E-2,0E0,0E0,0E0,0E0,1.8293619E-1,0E0,2.3403607E-1,0E0,7.266289E-1,0E0,0E0,2.6663303E-1,0E0,0E0],"parents":[2147483647,0,0,1,1,2,2,3,3,4,4,9,9,11,11,13,13,16,16],"right_children":[2,4,6,8,10,-1,-1,-1,-1,12,-1,14,-1,16,-1,-1,18,-1,-1],"split_conditions":[1E0,1.8E1,2.732359E0,2.36411E0,2.1E1,-0E0,4.888142E-3,-0E0,-2.4824808E-4,2.837853E0,-0E0,4.8E1,-0E0,3.3E1,-0E0,-0E0,2.582862E0,-0E0,2.9227927E-3],"split_indices":[12,0,8,8,0,0,0,0,0,8,0,1,0,1,0,0,8,0,0],"split_type":[0,0,0,0,0,0,0,0,0,0,0,0,0,0,0,0,0,0,0],"sum_hessian":[8.97E2,8.75E2,2.2E1,5.38E2,3.37E2,1.2E1,1E1,9.1E1,4.47E2,1.66E2,1.71E2,1.34E2,3.2E1,1.06E2,2.8E1,7.1E1,3.5E1,1.7E1,1.8E1],"tree_param":{"num_deleted":"0","num_feature":"18","num_nodes":"19","size_leaf_vector":"1"}},{"base_weights":[-0E0,-1.448152E-4,2.5599147E-3,2.8264886E-2,-0E0,-0E0,6.278799E-2,-0E0,-1.7289507E-4,7.767289E-2,-0E0,-0E0,9.383587E-2,1.0724083E-3,-0E0],"categories":[],"categories_nodes":[],"categories_segments":[],"categories_sizes":[],"default_left":[0,0,0,0,0,0,0,0,0,0,0,0,0,0,0],"id":85,"left_children":[1,-1,3,5,7,-1,9,-1,-1,11,-1,-1,13,-1,-1],"loss_changes":[6.3115135E-2,0E0,2.7577713E-1,6.192391E-1,6.336802E-2,0E0,3.3189905E-1,0E0,0E0,3.9821196E-1,0E0,0E0,2.92845E-1,0E0,0E0],"parents":[2147483647,0,0,2,2,3,3,4,4,6,6,9,9,12,12],"right_children":[2,-1,4,6,8,-1,10,-1,-1,12,-1,-1,14,-1,-1],"split_conditions":[2.61746E0,-1.448152E-4,8.86618E-1,9.63E2,3.996E3,-0E0,1.32E4,-0E0,-1.7289507E-4,5.393E3,-0E0,-0E0,1.284E3,1.0724083E-3,-0E0],"split_indices":[8,0,6,5,7,0,7,0,0,7,0,0,5,0,0],"split_type":[0,0,0,0,0,0,0,0,0,0,0,0,0,0,0],"sum_hessian":[8.82E2,2.96E2,5.86E2,3.5E2,2.36E2,1.22E2,2.28E2,1.4E1,2.22E2,2.04E2,2.4E1,1.9E1,1.85E2,1.75E2,1E1],"tree_param":{"num_deleted":"0","num_feature":"18","num_nodes":"15","size_leaf_vector":"1"}},{"base_weights":[-0E0,-0E0,3.054907E-3,-9.485426E-3,-0E0,-1.2446314E-2,-0E0,2.4024712E-2,-0E0,-0E0,-1.3413055E-4,4.903167E-2,-0E0,7.745475E-2,-0E0,-0E0,1.3916743E-3],"categories":[],"categories_nodes":[],"categories_segments":[],"categories_sizes":[],"default_left":[0,0,0,0,0,0,0,0,0,0,0,0,0,0,0,0,0],"id":86,"left_children":[1,3,-1,5,7,9,-1,11,-1,-1,-1,13,-1,15,-1,-1,-1],"loss_changes":[1.4259335E0,4.9575403E-2,0E0,9.910509E-3,1.2467307E-1,9.853654E-4,0E0,2.4315798E-1,0E0,0E0,0E0,3.2208884E-1,0E0,1.9780254E-1,0E0,0E0,0E0],"parents":[2147483647,0,0,1,1,3,3,4,4,5,5,7,7,11,11,13,13],"right_children":[2,4,-1,6,8,10,-1,12,-1,-1,-1,14,-1,16,-1,-1,-1],"split_conditions":[2E0,3.6E1,3.054907E-3,7.22E3,6.629E3,3E0,-0E0,2.1E1,-0E0,-0E0,-1.3413055E-4,5.4E1,-0E0,1.3E1,-0E0,-0E0,1.3916743E-3],"split_indices":[12,1,0,7,7,1,0,0,0,0,0,1,0,0,0,0,0],"split_type":[0,0,0,0,0,0,0,0,0,0,0,0,0,0,0,0,0],"sum_hessian":[9.37E2,9.21E2,1.6E1,5.51E2,3.7E2,3.84E2,1.67E2,2.16E2,1.54E2,3.2E1,3.52E2,1.53E2,6.3E1,1.15E2,3.8E1,6.7E1,4.8E1],"tree_param":{"num_deleted":"0","num_feature":"18","num_nodes":"17","size_leaf_vector":"1"}},{"base_weights":[-0E0,4.776878E-3,-0E0,7.969092E-3,-0E0,1.0733423E-2,